tree
version=v4
num_class=1
num_tree_per_iteration=1
label_index=0
max_feature_idx=40
objective=binary sigmoid:1
feature_names=sub_grade_encoded grade_encoded dti revol_util revol_bal_to_income loan_to_income installment_to_income delinq_2yrs pct_tl_nvr_dlq num_tl_90g_dpd_24m num_tl_30dpd num_actv_rev_tl has_public_record pub_rec pub_rec_bankruptcies credit_age_months open_acc total_acc mort_acc num_bc_tl num_il_tl acc_open_past_24mths tot_cur_bal tot_hi_cred_lim avg_cur_bal bc_util il_util all_util total_rev_hi_lim annual_inc loan_amnt int_rate installment term_months employment_months income_confidence verified_income inq_last_6mths purpose_risk home_own_encoded thin_file
feature_infos=[1:35] [1:7] [0:100] [0:100] [0:8.9917428571428566] [0.00017142857142857143:5.8377116170461179] [6.9120000000000002e-05:1.8183712784588442] [0:29] [0:100] [0:29] [0:3] [0:43] [0:1] [0:23] [0:12] [36:851] [1:76] [2:169] [0:30] [0:68] [0:150] [0:56] [0:4535114] [0:9999999] [0:958084] [0:255.19999999999999] [0:288] [0:165] [0:9999999] [3000:9225000] [950:40000] [5.3099999999999996:30.989999999999998] [14.77:1719.8299999999999] [36:60] [0:120] [0.40000000000000002:0.90000000000000002] [1200:8302500] [0:8] [1:3] [1:3] [0:1]
tree_sizes=13626 13906 13886 13906 13901 13882 13891 13928 13867 13930 13916 13911

Tree=0
num_leaves=127
num_cat=0
split_feature=0 0 0 33 33 27 0 27 24 0 24 18 24 27 2 33 6 22 6 27 33 24 6 6 33 2 6 34 34 2 24 34 18 24 34 0 0 0 2 27 24 5 2 24 0 34 2 5 0 2 0 34 29 18 2 2 6 0 22 24 6 18 5 6 24 34 6 5 2 2 0 18 34 24 24 29 24 0 27 0 18 24 0 6 2 2 6 0 2 24 34 0 24 6 0 29 24 22 0 8 2 35 18 34 27 27 2 18 24 24 34 2 7 2 6 27 0 34 33 34 2 2 18 6 0 28
split_gain=172742 28151.9 23474.7 7197.72 6072.1 5303.87 3962.19 3442.37 3145.07 2435.72 2061.11 1901.37 1495.57 1414.56 1412.54 1344.64 1221.51 1215.68 1151.97 1124.36 952.368 874.319 840.219 728.207 715.351 691.193 668.971 656.08 609.521 565.357 548.548 548.509 520.23 503.046 501.927 498.99 469.988 469.009 445.328 402.38 384.634 370.733 361.133 348.06 326.746 321.269 313.267 312.43 307.574 307.395 304.182 300.229 294.261 285.305 273.273 270.229 266.548 266.506 258.11 250.909 239.688 237.821 228.637 227.524 217.865 212.837 212.765 210.852 209.703 201.606 197.772 195.312 193.972 192.487 192.185 191.05 189.569 188.741 185.829 181.135 180.958 176.708 175.417 174.946 174.48 170.88 159.051 155.887 155.492 154.74 154.445 152.649 150.795 149.588 149.203 144.985 144.294 143.367 141.787 139.495 137.65 136.125 135.116 134.653 133.477 130.96 130.543 130.5 129.987 129.418 128.311 125.939 125.906 125.785 123.172 121.12 118.696 117.589 117.041 116.988 115.751 115.742 115.546 115.016 114.327 111.877
threshold=10.500000000000002 16.500000000000004 5.5000000000000009 48.000000000000007 48.000000000000007 20.500000000000004 8.5000000000000018 1.0000000180025095e-35 14591.500000000002 3.5000000000000004 15797.500000000002 1.0000000180025095e-35 14041.500000000002 1.0000000180025095e-35 20.915000000000003 48.000000000000007 0.037422382133995048 1.0000000180025095e-35 0.084610446421159044 17.500000000000004 48.000000000000007 12946.500000000002 0.05619480268637337 0.042224944444444447 48.000000000000007 26.055000000000003 0.05215577872594139 1.0000000180025095e-35 1.0000000180025095e-35 19.455000000000002 13852.500000000002 1.0000000180025095e-35 1.5000000000000002 10204.500000000002 1.0000000180025095e-35 23.500000000000004 20.500000000000004 12.500000000000002 16.555000000000003 30.500000000000004 34441.000000000007 0.092599798241821601 21.435000000000006 22013.500000000004 13.500000000000002 1.0000000180025095e-35 20.025000000000002 0.15999573356087679 13.500000000000002 16.735000000000003 13.500000000000002 1.0000000180025095e-35 50000.780000000006 1.5000000000000002 16.555000000000003 16.925000000000004 0.032647173913043483 14.500000000000002 109610.50000000001 11038.500000000002 0.080701637515526017 1.5000000000000002 0.21833697234352259 0.022238670329670331 6493.5000000000009 1.0000000180025095e-35 0.072794785562632705 0.026330971659919031 13.645000000000001 13.265000000000002 20.500000000000004 1.0000000180025095e-35 1.0000000180025095e-35 5667.5000000000009 4006.5000000000005 37001.500000000007 14591.500000000002 12.500000000000002 46.500000000000007 9.5000000000000018 1.0000000180025095e-35 16420.500000000004 20.500000000000004 0.086703666666666679 14.025 24.525000000000002 0.055792507826086961 23.500000000000004 21.745000000000001 4006.5000000000005 9.0000000000000018 4.5000000000000009 7016.5000000000009 0.06310670454545457 12.500000000000002 36581.500000000007 11213.500000000002 62476.000000000007 26.500000000000004 1.0000000180025095e-35 16.465000000000003 0.57500000000000007 2.5000000000000004 1.0000000180025095e-35 1.0000000180025095e-35 49.500000000000007 21.235000000000003 2.5000000000000004 9719.5000000000018 7730.5000000000009 1.0000000180025095e-35 14.215000000000002 1.0000000180025095e-35 21.335000000000004 0.07410977718360072 49.500000000000007 2.5000000000000004 1.0000000180025095e-35 48.000000000000007 114.00000000000001 24.885000000000002 14.495000000000003 7.5000000000000009 0.018407159061487762 20.500000000000004 23700.500000000004
decision_type=2 2 2 2 2 2 2 2 2 2 2 2 2 2 2 2 2 2 2 2 2 2 2 2 2 2 2 2 2 2 2 2 2 2 2 2 2 2 2 2 2 2 2 2 2 2 2 2 2 2 2 2 2 2 2 2 2 2 2 2 2 2 2 2 2 2 2 2 2 2 2 2 2 2 2 2 2 2 2 2 2 2 2 2 2 2 2 2 2 2 2 2 2 2 2 2 2 2 2 2 2 2 2 2 2 2 2 2 2 2 2 2 2 2 2 2 2 2 2 2 2 2 2 2 2 2
left_child=2 4 9 7 5 14 12 18 29 28 17 23 19 15 22 30 67 60 43 20 34 41 53 63 39 32 54 104 97 50 47 -21 66 48 -4 69 58 72 75 88 85 -15 59 56 81 -25 87 84 -16 62 93 -43 110 77 -13 95 -3 -47 113 116 -5 99 112 -7 78 -49 -19 -9 114 -12 -58 -38 -24 -27 -44 -29 -17 -2 -40 -67 -52 117 109 -34 -8 94 -37 -20 -14 -57 -46 -77 -69 -6 -10 -36 -74 -1 125 -31 -53 -56 -71 -65 -11 -61 -26 -54 -95 -48 -39 -41 -33 -18 -23 -76 -30 -28 -51 -35 -88 -22 -42 -45 -75 -68
right_child=1 3 6 10 8 11 13 16 40 27 35 26 24 21 33 76 36 25 46 31 121 68 37 45 106 73 44 38 42 61 -32 49 83 119 55 86 71 52 64 111 122 51 74 123 90 57 82 65 -50 118 80 100 107 -55 101 89 70 -59 -60 105 -62 -63 -64 103 -66 79 98 92 -70 102 -72 -73 96 124 115 91 -78 -79 -80 -81 -82 -83 -84 -85 -86 -87 120 -89 -90 -91 -92 -93 -94 108 -96 -97 -98 -99 -100 -101 -102 -103 -104 -105 -106 -107 -108 -109 -110 -111 -112 -113 -114 -115 -116 -117 -118 -119 -120 -121 -122 -123 -124 -125 -126 -127
leaf_value=-1.3626578329664305 -1.3591679001726924 -1.3462410624848538 -1.3514768122837459 -1.3361128914625577 -1.3379444055024061 -1.3492667891168526 -1.3677107220234814 -1.3585153622016364 -1.3448827455925536 -1.3659153221679008 -1.3330220310787519 -1.3543022377666427 -1.3780197113139647 -1.3543809370140243 -1.3436305922924445 -1.3391135503183491 -1.322008862373806 -1.3158856451361398 -1.3357369937629098 -1.3371935078679811 -1.3560119857851738 -1.3678996610645551 -1.3388842015808526 -1.3151895673935681 -1.362284947991633 -1.3030248179616266 -1.3265265198920106 -1.3689288513965741 -1.3891071911066564 -1.3369560472239699 -1.3674571118226526 -1.3662549271786038 -1.3235695505087584 -1.3464079684515726 -1.3625559985714701 -1.3284970972290688 -1.3087765735647525 -1.3305069479683422 -1.3712222729156902 -1.3722855547582589 -1.3463087181250699 -1.3281430690295009 -1.3726377588595944 -1.3742387136494676 -1.3241311719990276 -1.3305825412013568 -1.3266341735467471 -1.3421318574046988 -1.3361668544657823 -1.3536155453292771 -1.3210871913225788 -1.347138717198902 -1.3467408636468567 -1.362944923398425 -1.3531472516424607 -1.3606931254692882 -1.339560891106502 -1.3227976779376123 -1.3272031373231636 -1.394533272225686 -1.3210940988562492 -1.3260814101077936 -1.351859305941951 -1.3112138151824819 -1.3761402126571443 -1.3596747694443045 -1.3086267676702026 -1.3282633895999594 -1.3528505819410781 -1.3207158532611381 -1.3306144872288157 -1.3179990442175431 -1.3521783236319456 -1.3136503007683746 -1.3876129665914021 -1.3842263186972708 -1.3505167946279548 -1.3506123269158434 -1.3579793927733721 -1.352401533700603 -1.3296239695172622 -1.3468245052621455 -1.3210932080233206 -1.3156225580217686 -1.3586316063312158 -1.3320257710495866 -1.3178580743923192 -1.3239997274025204 -1.3701554477951996 -1.3672336522887671 -1.3351636918215162 -1.3783051548742875 -1.3411801887089061 -1.3272658738587531 -1.3372321894612278 -1.3713895554889322 -1.3604422922338273 -1.3789880941304384 -1.3045728745979457 -1.3178350477296152 -1.3408098168111269 -1.340828562006628 -1.3276599606935462 -1.3369331113695746 -1.3503658913656702 -1.3862935496923752 -1.3504540880867479 -1.3553631687695094 -1.3412577794232434 -1.3361040431026359 -1.3423227769782873 -1.3640797209186675 -1.3553992462734241 -1.3152494255791383 -1.3535114697798181 -1.3762233748515362 -1.3826787492363761 -1.3398740361673722 -1.3411492539314003 -1.354016960625412 -1.3092906542775069 -1.3440215995997657 -1.3677949600005916 -1.3503045681061372 -1.306678543045803 -1.3138801327644676
leaf_weight=421.41672621667385 1779.6279078722 1580.1486863940954 879.80317054688931 818.1930166631937 1471.9795648753643 692.5802386701107 1468.2559530287981 159.66938193142414 1440.1691044121981 511.33356010913849 1416.9998549222946 1604.3015149086714 3974.8044457733631 1172.7654268145561 4939.1262885481119 1428.0300990790129 2196.0002370178699 2698.5885486006737 3230.0035921484232 645.71400575339794 519.80028983950615 766.25368545949459 353.68365100026131 824.29933433234692 1439.6214551329613 4101.4924711734056 305.21773797273636 568.74353381991386 3308.6247496157885 159.38661819696426 3047.0241987109184 1962.6991960406303 1918.7678591609001 2160.1310862004757 869.73960575461388 411.46505159139633 2328.4542885571718 421.25392116606236 2343.4154570400715 1181.2056178450584 2004.0451460927725 561.35804803669453 674.57105472683907 90.214926764369011 625.5792742818594 6007.9676122665405 2104.2204079926014 479.68904574215412 4014.483151897788 3406.5955652445555 2186.3319633901119 2402.5561084747314 2599.9040923267603 2302.5196167081594 456.50005154311657 2816.2959246635437 3101.129966750741 2503.6385997086763 2028.2766574472189 4402.0915665030479 894.04508838057518 2439.7854886651039 846.83210076391697 86.49492259323597 3780.9550189077854 2745.404423803091 4006.2311554551125 783.08913873136044 2326.3490429073572 2161.1933480650187 1461.035776078701 1541.2983909547329 3317.0775048285723 1487.3352967202663 1583.9254661798477 3175.8033455014229 992.00618487596512 2467.3758988827467 517.91500094532967 2745.8133029490709 1845.4285576194525 1568.9757231622934 1671.1767852455378 2680.3340531885624 2007.4882472604513 1670.5477334409952 2035.4376803636551 530.40424329042435 1346.9399162381887 2985.6433898955584 2791.0116999447346 3855.6091996729374 680.05668510496616 1671.7042231857777 3562.3949180394411 5142.214306563139 1138.9046646207571 439.77253949642181 1905.0027603805065 4849.0333123505116 3253.7946328222752 1719.5666898488998 2378.8126257359982 1555.4605220556259 390.3320492208004 936.68430642783642 505.28792172670364 967.83756059408188 319.14245548844337 805.71103493869305 3035.1713941544294 2049.0450721979141 547.65193265676498 2266.9484682232141 346.18232610821724 488.44550383090973 1761.2457265257835 2069.5235426872969 331.94529047608376 1301.8103924095631 934.43608053028584 857.80022047460079 105.89406092464924 754.56576837599277 2689.0719958245754 2805.6857239454985
leaf_count=1929 7914 6262 3659 2932 5376 2823 6999 706 5634 2403 4914 6842 20482 5005 19091 5278 6710 7627 11530 2340 2250 3658 1304 2308 6570 9617 984 2737 18423 576 14496 9249 5975 8574 3978 1357 5961 1421 11479 5833 7947 1844 3340 452 1961 20287 6794 1827 14395 14441 6605 9602 10352 10565 1927 12685 11514 7724 6592 25406 2701 7827 3534 229 19217 12261 10234 2576 9795 6499 4935 4478 13883 4079 8731 17103 4090 10182 2280 11515 6165 6252 5049 7549 8887 5731 5903 1660 6544 14179 9903 19909 2566 5437 12916 25221 5119 2282 4577 14059 12233 6466 7772 5622 1607 5117 2082 4166 1205 2887 11583 9489 2358 6353 1466 2484 9383 7708 1252 5538 2410 3328 505 3105 6673 7719
internal_value=-1.38185 -1.33079 -1.36664 -1.32082 -1.33886 -1.34259 -1.35929 -1.32853 -1.33043 -1.38128 -1.31486 -1.33528 -1.36395 -1.35344 -1.348 -1.35743 -1.3205 -1.31197 -1.33481 -1.36097 -1.36434 -1.34793 -1.35152 -1.32963 -1.37016 -1.31082 -1.34119 -1.37572 -1.38729 -1.32485 -1.36008 -1.35485 -1.31325 -1.34279 -1.36605 -1.32292 -1.31797 -1.34834 -1.37677 -1.37265 -1.33993 -1.34406 -1.38836 -1.34081 -1.33767 -1.32713 -1.32979 -1.3577 -1.34028 -1.35645 -1.32873 -1.34211 -1.34504 -1.35727 -1.34803 -1.36714 -1.33915 -1.32829 -1.32127 -1.39006 -1.32827 -1.32094 -1.36085 -1.33963 -1.37299 -1.35492 -1.31096 -1.33665 -1.35627 -1.32641 -1.33669 -1.31245 -1.35316 -1.30612 -1.38191 -1.38008 -1.34379 -1.3542 -1.36882 -1.35604 -1.32499 -1.3416 -1.32628 -1.31894 -1.36247 -1.33758 -1.31678 -1.33408 -1.37603 -1.36406 -1.33314 -1.38098 -1.33426 -1.33309 -1.33943 -1.37011 -1.35429 -1.37099 -1.30943 -1.31844 -1.3435 -1.34341 -1.32435 -1.33557 -1.35918 -1.39309 -1.35921 -1.34908 -1.32951 -1.32925 -1.34088 -1.36708 -1.36388 -1.31857 -1.36342 -1.38493 -1.38687 -1.33816 -1.35251 -1.34927 -1.31516 -1.34854 -1.34739 -1.35286 -1.30916 -1.31079
internal_weight=0 139991 87213.5 62655.5 77335.9 53610 58052.6 27312.4 23725.8 29160.9 35343.1 22811.1 32309.6 25743 30798.9 14913.7 11983.8 26004.7 15328.6 21812.7 14071.3 10829.3 18383.4 11670.4 10496.9 24292.5 11140.7 15144.1 14016.8 14942.8 12493.7 7741.44 16014.6 12415.6 12693.7 9338.34 10361 11833.8 14242.4 8552 8783.05 7390.47 13155.6 6987.1 7360.31 9335.91 8341.52 9446.65 8953.61 7095.72 7494.59 6217.71 7024.17 6549.52 3780.37 11813.9 6142.31 8511.61 6491.23 10408.6 1712.24 7448.21 3357.18 2334.54 6642.29 5970.91 11415.5 1622.82 3438.79 5957.01 4562.17 3869.75 4809.67 8277.9 2746.94 7600.16 2420.04 4247 2861.33 5491.22 4031.76 3943.72 4581.11 4599.1 3475.74 6673.11 3381.34 3760.41 5321.74 5801.94 3416.59 7031.41 1463.15 3462.83 5002.56 6011.95 4455.98 861.189 8716.92 5008.42 5656.35 2176.07 4540.01 1641.96 901.666 5338.78 1944.91 3567.74 1990.85 2909.93 3456.43 3230.25 2510.35 4462.95 1112.44 2072.37 5069.87 2374.74 3738.54 3461.94 2969.87 1377.6 2109.94 844.781 4176.41 6811.92
internal_count=886034 473774 412260 188668 285106 205123 258430 90130 79983 153830 98538 81036 149474 108956 124087 65353 35942 69683 54188 98474 65300 43603 76489 38993 51000 64050 42043 76735 77095 47250 55985 33174 43681 47598 59722 28855 30094 47828 72725 42348 32733 28684 72884 26268 26808 30319 27920 41489 33486 30834 24788 23679 27522 28661 15235 56063 22711 28011 19655 58329 5633 22462 15141 8674 32976 25603 30157 5848 14919 19185 16449 10439 20306 20369 14555 39749 9368 18096 13759 23776 12770 14944 14730 13524 15886 24281 9670 13190 27026 26864 11864 37012 5142 12018 18550 29199 19002 4211 22530 14635 21835 8393 14271 5851 4010 30523 8652 14518 6642 9681 13004 15322 11607 13063 5124 11215 27806 8692 15693 14112 8313 5578 8452 3557 10752 17953
is_linear=0
shrinkage=1


Tree=1
num_leaves=127
num_cat=0
split_feature=0 0 0 33 33 27 0 27 24 0 39 24 21 24 27 33 5 5 34 24 33 27 24 5 24 33 21 34 21 21 21 21 29 5 34 39 21 5 39 5 21 23 24 27 21 29 5 29 0 22 0 24 34 34 39 0 0 3 5 0 3 0 0 27 21 23 5 5 5 5 34 0 5 24 5 29 34 21 5 5 5 0 24 0 5 29 3 21 34 0 39 3 27 23 5 4 3 34 5 5 23 0 27 21 0 24 21 39 0 34 4 5 5 3 0 8 4 0 21 0 0 5 21 21 5 27
split_gain=156050 24372.8 22341.8 6034.66 5392.61 4735.52 3592.66 2938.31 2663.95 2372.08 1783.41 1728.24 1711.63 1482.32 1259.64 1343.92 1028.74 1020.82 1001.64 983.776 938.642 878.331 867.197 839.841 790.751 662.682 619.713 577.533 577.392 566.668 552.073 541.048 535.179 525.854 499.474 489.253 423.316 412.964 411.24 406.563 406.515 375.665 362.085 348.239 345.857 335.699 332.256 322.415 315.742 308.584 298.745 293.562 279.728 272.744 267.765 260.554 246.182 237.97 248.559 232.809 232.281 232.227 228.612 224.588 224.188 212.711 206.379 202.059 201.397 197.993 197.417 191.4 188.714 183.445 181.073 180.933 178.568 180.993 177.227 172.272 172.017 171.706 167.519 166.198 165.541 163.956 162.417 195.812 155.294 151.948 147.526 145.821 145.465 143.921 143.577 143.351 142.77 142.163 141.371 140.722 139.213 138.941 138.886 138.761 138.026 137.675 133.101 131.448 129.615 129.306 129.251 129.117 128.913 128.408 126.716 126.469 123.815 122.137 121.718 121.069 120.602 123.939 120.26 118.889 120.287 117.28
threshold=10.500000000000002 16.500000000000004 5.5000000000000009 48.000000000000007 48.000000000000007 20.500000000000004 8.5000000000000018 1.0000000180025095e-35 14591.500000000002 3.5000000000000004 2.5000000000000004 12256.500000000002 3.5000000000000004 13852.500000000002 5.5000000000000009 48.000000000000007 0.17449988366682181 0.22000235719336844 1.0000000180025095e-35 11392.500000000002 48.000000000000007 43.500000000000007 7730.5000000000009 0.11574915824915825 27899.500000000004 48.000000000000007 5.5000000000000009 1.0000000180025095e-35 4.5000000000000009 5.5000000000000009 1.5000000000000002 4.5000000000000009 50000.780000000006 0.18000002769231624 1.0000000180025095e-35 2.5000000000000004 4.5000000000000009 0.052645576707726773 2.5000000000000004 0.026330971659919031 3.5000000000000004 204393.00000000003 17929.500000000004 30.500000000000004 4.5000000000000009 38506.500000000007 0.29411944927237438 62002.000000000007 20.500000000000004 103472.50000000001 12.500000000000002 34441.000000000007 1.0000000180025095e-35 1.0000000180025095e-35 2.5000000000000004 13.500000000000002 24.500000000000004 34.45000000000001 0.14998800191969289 12.500000000000002 34.850000000000001 13.500000000000002 14.500000000000002 32.500000000000007 4.5000000000000009 213424.00000000003 0.06667716379847978 0.09052028971370045 0.073395965655139991 0.045456198467326556 1.0000000180025095e-35 20.500000000000004 0.19999384653252111 7991.5000000000009 0.31999675955930013 43599.000000000007 1.0000000180025095e-35 5.5000000000000009 0.15999573356087679 0.095248357963875221 0.11953338456284154 12.500000000000002 4680.5000000000009 26.500000000000004 0.14545983509544499 46008.500000000007 47.95000000000001 4.5000000000000009 1.0000000180025095e-35 14.500000000000002 2.5000000000000004 48.850000000000001 1.0000000180025095e-35 119796.50000000001 0.070206882014817493 0.24972264957264961 47.050000000000004 1.0000000180025095e-35 0.19999384653252111 0.22826335071556378 75068.000000000015 1.5000000000000002 1.0000000180025095e-35 6.5000000000000009 13.500000000000002 21446.500000000004 1.5000000000000002 2.5000000000000004 13.500000000000002 1.0000000180025095e-35 0.08836882591093119 0.16855537720706262 0.20588912114515165 22.450000000000003 21.500000000000004 73.750000000000014 0.17550384615384618 22.500000000000004 5.5000000000000009 24.500000000000004 21.500000000000004 0.065554776191371081 7.5000000000000009 4.5000000000000009 0.23750852686222873 45.500000000000007
decision_type=2 2 2 2 2 2 2 2 2 2 2 2 2 2 2 2 2 2 2 2 2 2 2 2 2 2 2 2 2 2 2 2 2 2 2 2 2 2 2 2 2 2 2 2 2 2 2 2 2 2 2 2 2 2 2 2 2 2 2 2 2 2 2 2 2 2 2 2 2 2 2 2 2 2 2 2 2 2 2 2 2 2 2 2 2 2 2 2 2 2 2 2 2 2 2 2 2 2 2 2 2 2 2 2 2 2 2 2 2 2 2 2 2 2 2 2 2 2 2 2 2 2 2 2 2 2
left_child=2 4 9 7 5 12 13 17 35 27 24 23 32 18 15 28 39 26 -4 33 21 29 57 60 31 43 66 100 45 75 -12 47 53 59 102 55 63 -13 70 -9 -19 80 64 88 72 -8 84 114 90 120 -39 104 -40 -2 -17 109 65 58 -16 -14 -7 122 103 85 101 -33 -3 -24 -21 -62 -25 -68 -37 -42 95 -20 -59 -78 -47 -28 -30 -70 116 -26 -32 -36 -23 -88 -15 -72 -18 98 -74 -65 -61 -55 -84 -71 -45 108 -1 -29 -11 -54 -10 -69 -77 -50 -34 -6 -101 -46 -31 -66 -5 -49 -38 -75 -86 -81 121 -41 -35 124 -111 -44
right_child=1 3 6 10 8 11 14 16 51 34 30 37 19 25 22 54 48 40 20 68 -22 86 67 38 83 -27 79 42 41 112 46 56 99 61 36 44 82 50 52 49 73 -43 125 91 111 78 -48 115 107 -51 -52 -53 62 74 -56 -57 -58 76 -60 94 69 -63 -64 93 113 -67 71 105 81 97 89 -73 92 117 -76 106 77 -79 -80 119 -82 -83 96 -85 118 -87 87 -89 -90 -91 -92 -93 -94 -95 -96 -97 -98 -99 -100 110 -102 -103 -104 -105 -106 -107 -108 -109 -110 123 -112 -113 -114 -115 -116 -117 -118 -119 -120 -121 -122 -123 -124 -125 -126 -127
leaf_value=0.021637148557714554 0.042126172437800799 0.026831721759727666 0.035475471724420615 0.05717500476395343 0.061484015559782008 0.032576875634436966 0.025293244226340862 0.018424259298734931 0.039251418583812397 0.013449197309605459 0.057786677831934641 0.020915900394195264 0.030006648582252517 0.02097472600060463 0.023060022425390635 0.032931929015369683 0.055725476358047372 0.044004634135686525 0.016822233033060983 0.019319436044695319 0.032245857198492017 0.020942072781572615 0.017941182677514985 0.056098317421915261 0.048829384837070167 0.021720234960962009 0.040129049270407439 -0.010619362861070587 0.021602248770681495 0.019252128757639757 0.056743529744811561 0.064543988585213374 0.01743569487480116 0.0373476037807123 0.0064906123231460036 0.045396336019981311 0.010185886667679485 0.03205487349643768 0.065394214159273045 0.042852201880532917 0.056149536360027827 0.01720245243289141 -0.012916874254572533 0.0045811209559203023 0.053098165668970909 0.01115687470500574 0.072573278326982446 0.044415751837666786 0.062918984747517004 0.0445247875638944 0.041117291968369288 0.033866680824161055 0.047731703651634538 0.024184469452671976 0.047523243556245688 0.053717054298473378 0.0680069159331083 0.054338607799794068 0.037488805619761888 0.029935757115356138 0.031959332091681648 0.046404908696339266 0.057627803658213773 0.013077742045273294 -0.0042356048106141726 0.057653713529518459 0.034343523460671856 0.031247587635947177 0.025603664166663719 0.064731720344156585 0.04161849832712395 0.043956941980650671 0.052868224640760769 0.044430600632987725 0.035009409243112258 0.0066381911648698234 0.036249810602040682 0.0459333053974008 0.018190637952701566 0.048005944079340113 0.031845885482813849 0.033635706400206009 0.0041294632384068237 0.060483828475737238 0.064170172425627142 -0.00086152865673044322 0.02482506592506457 0.036607974863452568 0.0050673513760118132 0.050112996992195555 0.062749220080348042 0.017513923488844226 0.061158775159618636 0.0031603642208962064 0.039686426059273354 0.032306779753129344 0.012797134320631856 0.044283216776652264 0.018908515158430214 0.03977821292902519 0.0045974636185563992 -0.0041285328799141631 0.029347945746201694 0.055144990873466658 0.044958361002795481 0.023555419239615967 0.012727556258382029 0.071397417548363817 0.024865088291607062 0.034023435314993328 0.024745414883314037 0.064333176816605636 0.027328052853777502 0.0046673547178112005 0.064773493291940792 0.05424092116065353 0.021638940776323948 0.060231246406191152 0.070450034079729773 0.063058883538467336 0.062031998095565623 0.055328692255333226 0.045156432523082525 0.049366195397973378 0.045385258108595276 -0.0053150334097329111
leaf_weight=289.48851069808006 747.08813145756721 915.37849903106689 1629.9899742156267 1769.678169131279 212.81738029420376 1198.5595134347677 1705.0194237977266 153.47981379926205 3175.0641101151705 506.06160864233971 1750.951901525259 664.9247329980135 2486.9061163514853 257.7273892313242 782.25686985254288 1801.2767962366343 2435.8496800512075 2649.3580924272537 3042.3224425166845 759.31385406851768 1985.5705771446228 2154.7756487131119 951.88896045088768 640.51070113480091 2989.4593413472176 1991.9801909923553 1171.254112675786 1990.0345522165298 853.9389061331749 2219.3044327646494 671.23765321075916 4348.0090565979481 2495.9234632700682 3062.1456656754017 1552.2104900181293 840.39708361029625 854.24079291522503 2415.733992010355 692.36483584344387 399.66000837087631 3522.1018421649933 1360.951054930687 3484.3861045837402 915.11439861357212 489.53969641029835 2490.2858587652445 7376.9263847470284 646.53586530685425 1372.0081502497196 1602.7177545875311 3680.8995575904846 2169.5450708419085 3708.8059678077698 2585.3304800987244 700.47183722257614 4292.6720904707909 3720.6432106643915 333.99428987503052 1233.0085378289223 749.71758346259594 526.69207581877708 3468.4223794490099 2098.8817410618067 1116.9300925582647 1166.3861855566502 3087.108963996172 2598.6010537445545 2376.3108892887831 1761.994910761714 145.87151624262333 2873.4235959649086 1222.7317193448544 2307.9098080992699 1068.3277502954006 1553.7992280125618 2015.5449139475822 2683.7105586975813 1090.2791228443384 3383.79209831357 2144.9419678002596 2860.3779009133577 2710.8809531331062 2110.363343089819 590.01746571063995 2456.3998699486256 5553.9618890434504 1917.1886876225471 802.05029264092445 5172.2217699587345 1201.8559842854738 2396.563141092658 1971.7801843732595 1356.3868702501059 1231.2306010723114 3190.8946438580751 1315.4461487531662 1189.0557657331228 2209.8055365383625 394.43655446171761 265.94005636870861 569.33943018317223 3918.4826321303844 389.87768089771271 1403.2026173770428 3686.2879370898008 1538.6041256636381 5009.3596823513508 1613.484291061759 1511.6754824370146 557.32634688913822 1674.5766940712929 2690.4570971429348 1233.1267796158791 1457.6522143483162 1784.3815149962902 2909.7286677658558 678.53042191267014 241.94904224574566 2557.070779889822 239.68910501897335 817.39277766644955 1645.7308084368706 1071.8393104225397 1545.5535101592541 1149.0915630608797 1059.9471049457788
leaf_count=1277 2656 3810 6240 5147 593 4699 7246 693 11635 2394 5055 2915 10096 1156 3366 7066 7272 9149 13980 3399 7865 9517 4313 1899 9727 8755 4275 11384 3768 10017 1966 11403 11324 11518 7794 2853 4178 9553 1803 1397 10526 6244 20301 4639 1517 11982 16985 2217 3687 5498 13222 8452 12305 11012 2351 13160 9247 1024 4610 3034 2092 11785 6128 5329 6387 8967 10005 9502 7465 389 10227 4231 7137 3685 5967 10067 10193 3744 15313 7138 11462 10619 10818 1645 6468 29521 8188 3070 26294 3868 6490 9035 3773 6357 11713 5192 5707 7683 1786 979 2903 21418 1589 4268 12669 6640 23860 3794 6414 2138 7104 7159 5183 7491 4654 8795 3018 682 6122 655 2229 4922 3716 5013 3892 5840
internal_value=0 0.0485457 0.0147472 0.0576391 0.0411113 0.037629 0.0218362 0.0506845 0.0489191 0.000417768 0.0629909 0.0444277 0.0325508 0.0174184 0.0273633 0.0236243 0.0579549 0.0449519 0.0203874 0.0362591 0.0191804 0.0177697 0.0325192 0.0478823 0.0593566 0.0113128 0.0401167 -0.00554039 0.0209756 0.015145 0.0683503 0.0610422 0.0266713 0.03902 0.00588679 0.053966 0.00497809 0.0358944 0.0504341 0.0504658 0.0503104 0.0261973 -0.00658391 0.00893245 0.0575469 0.0174784 0.0697658 0.0567242 0.0623786 0.0515662 0.0375273 0.0402886 0.0532263 0.0307834 0.0370199 0.0504178 0.0637937 0.0375291 0.0318905 0.0348055 0.0399902 0.0425824 0.0520568 0.00251651 -0.00415473 0.0616842 0.0353758 0.026215 0.0288549 0.0430709 0.0457531 0.0374212 0.0539738 0.0537662 0.0292288 0.0127465 0.0402939 0.039049 0.0152093 0.0464301 0.029492 0.0304727 0.00979368 0.0507526 0.0661209 0.000744196 0.0250494 0.0283024 0.00582312 0.0441253 0.0592104 0.0140768 0.0559392 0.00787889 0.0378326 0.0269248 0.00725405 0.045553 0.00889917 0.0223831 0.0103453 -0.00631518 0.0203724 0.049768 0.0423184 0.0282257 0.0109808 0.067504 0.0202391 0.0463282 0.0268086 0.062606 0.0221379 0.000709213 0.0609922 0.0524565 0.0152583 0.0473542 0.0673749 0.0495224 0.0555059 0.052894 0.0393738 0.0453339 0.0416778 -0.0111444
internal_weight=0 144216 87976.8 64869.4 79346.5 54873.4 58858.7 28211.2 24473 29118.2 36658.1 23461.5 31411.9 32712.5 26146.2 15156.1 12436.9 15774.3 22009.2 19262.1 20379.2 18393.7 10990.1 16700 21845.6 10703.3 8292.6 13935.7 12654.4 13519.7 14812.6 18266.1 12149.8 14029.9 15182.5 15442.2 14286.5 6761.56 12619 4618.98 7481.74 5075.27 13076.9 8711.28 7684.69 7579.1 13061.6 7110.32 7817.91 4465.5 6096.63 9030.9 7903.26 6201.66 2501.75 7757.46 11155.8 6123.25 2015.27 6427.52 4080.93 7602.41 7210.89 9454.33 8532.56 7435.12 4736.71 4866.8 5232.19 2882.37 4715.79 3821.33 4504.69 4832.38 5454.58 10067.2 4107.98 3773.99 5874.08 3555.89 3714.32 4472.88 4832.19 3579.48 5684.71 7106.17 4874.01 2719.24 5429.95 4075.28 4832.41 3281.33 3664.3 2348.16 3940.61 3900.78 3299.42 2355.68 1309.55 5948.12 858.828 5908.52 895.939 5112.01 6861.35 3914.92 7024.9 2985.49 4007.6 3464.79 1940.52 3180 3452.43 2624.04 3554.06 3556.26 1532.77 1310.28 5013.47 2384.63 2862.78 2045.39 4133.98 3251.97 1706.42 4544.33
internal_count=885753 473571 412182 188536 285035 205044 258476 90138 79991 153706 98398 81051 123993 149652 108824 65432 35982 54156 97987 73345 91747 83882 43392 55361 61802 51665 30114 77001 56015 63107 36596 50430 50648 51862 76705 47235 72722 25690 40498 14739 24042 21474 72821 42910 22439 34541 31541 20813 21243 14046 22775 32756 24504 24827 9417 24796 29617 22937 7976 24843 14863 27019 22701 49001 46680 20370 18046 20455 21483 10164 15994 14236 13763 14893 22171 47907 14961 13937 27295 12068 15230 18084 23721 11372 14556 37315 20775 11258 27450 14095 13762 15460 10910 11686 14747 16204 16525 8072 6425 25821 4180 32802 3983 16573 24304 16142 33927 7481 17738 11636 8083 8676 15200 13878 9801 11012 7196 4367 12590 7793 8548 6319 15234 11043 6030 26141
is_linear=0
shrinkage=0.02


Tree=2
num_leaves=127
num_cat=0
split_feature=31 31 31 5 5 31 31 31 27 27 27 32 39 5 24 5 24 2 24 2 39 27 11 34 2 27 34 11 11 11 31 11 2 39 22 5 11 39 2 5 6 31 31 2 5 34 2 2 24 31 6 35 2 32 30 27 6 27 24 5 5 5 24 34 27 24 32 30 11 2 5 34 27 30 5 2 34 39 24 30 24 5 31 5 24 31 24 39 24 11 31 11 31 27 22 31 32 36 11 5 24 30 2 5 22 6 5 31 6 5 24 2 6 32 31 34 32 35 35 11 31 22 5 6 24 35
split_gain=131175 22302.9 22195 5746.33 4254.17 3392.11 2404.51 2278.16 2005.01 1953.49 1736 1367.2 1353.36 1083.51 1067.33 1048.1 1012.36 818.987 789.342 788.854 734.369 675.565 652.133 616.617 586.553 530.443 515.39 496.737 479.387 466.734 464.678 426.519 423.269 394.474 390.58 385.228 377.53 362.439 355.84 337.973 422.06 304.194 303.587 299.605 293.329 289.075 264.448 255.993 254.001 252.765 243.511 236.996 234.016 231.684 225.23 223.619 223.456 223.09 222.562 218.211 212.192 205.577 205.103 204.049 203.173 201.887 200.431 221.548 200.118 194.361 187.692 185.358 181.748 181.456 180.26 179.528 178.646 178.359 178.114 172.024 171.481 169.366 167.54 165.925 162.948 158.616 157.678 157.04 155.676 155.524 154.687 154.209 150.486 148.049 146.896 147.437 145.417 143.623 140.983 139.71 137.622 137.119 136.5 135.061 131.83 130.874 127.353 127.049 126.76 125.574 124.607 123.551 121.852 121.328 121.263 120.604 118.65 117.835 117.471 117.082 116.858 116.357 116.093 115.188 114.499 113.585
threshold=12.510000000000002 8.2150000000000016 16.520000000000003 0.15999573356087679 0.19213235355722189 10.415000000000001 7.2250000000000005 19.98 39.500000000000007 5.5000000000000009 1.0000000180025095e-35 671.86500000000012 2.5000000000000004 0.18350788795878945 14041.500000000002 0.075003750375037523 8688.5000000000018 18.515000000000004 11904.500000000002 22.075000000000003 2.5000000000000004 12.500000000000002 5.5000000000000009 1.0000000180025095e-35 19.835000000000004 50.500000000000007 1.0000000180025095e-35 6.5000000000000009 6.5000000000000009 7.5000000000000009 12.125000000000002 7.5000000000000009 25.405000000000005 2.5000000000000004 101431.00000000001 0.095248357963875221 5.5000000000000009 2.5000000000000004 17.115000000000006 0.30304014231541998 0.079770230769230774 14.645000000000001 7.8850000000000007 19.555000000000003 0.16457188644688647 1.0000000180025095e-35 13.735000000000001 21.855000000000004 9876.5000000000018 6.4250000000000007 0.048104341770752741 0.82500000000000007 21.335000000000004 938.64000000000021 19837.500000000004 1.5000000000000002 0.12394710989010989 46.500000000000007 16834.500000000004 0.26530110295229992 0.06667716379847978 0.080000853351538184 10540.500000000002 1.0000000180025095e-35 58.500000000000007 24466.000000000004 425.17000000000007 12512.500000000002 7.5000000000000009 16.465000000000003 0.19999384653252111 1.0000000180025095e-35 39.500000000000007 27012.500000000004 0.31819416996047439 21.125000000000004 1.0000000180025095e-35 2.5000000000000004 23819.500000000004 9812.5000000000018 22300.500000000004 0.22188424556213018 24.430000000000003 0.15789639892695803 10701.500000000002 21.540000000000003 4108.5000000000009 2.5000000000000004 13666.500000000002 6.5000000000000009 12.900000000000002 6.5000000000000009 22.760000000000002 37.500000000000007 97535.000000000015 13.135000000000002 796.99500000000012 21999.200000000004 4.5000000000000009 0.24999375031248441 9399.5000000000018 13987.500000000002 18.225000000000005 0.15336980887210952 113724.50000000001 0.068024053475935847 0.29885764040939322 14.495000000000003 0.0092318433179723516 0.029777337951509161 12256.500000000002 17.295000000000005 0.087656419167516306 1032.1050000000002 14.475000000000003 1.0000000180025095e-35 682.44500000000016 0.57500000000000007 0.57500000000000007 2.5000000000000004 6.4250000000000007 75392.000000000015 0.029777337951509161 0.11610248958747378 6901.5000000000009 0.57500000000000007
decision_type=2 2 2 2 2 2 2 2 2 2 2 2 2 2 2 2 2 2 2 2 2 2 2 2 2 2 2 2 2 2 2 2 2 2 2 2 2 2 2 2 2 2 2 2 2 2 2 2 2 2 2 2 2 2 2 2 2 2 2 2 2 2 2 2 2 2 2 2 2 2 2 2 2 2 2 2 2 2 2 2 2 2 2 2 2 2 2 2 2 2 2 2 2 2 2 2 2 2 2 2 2 2 2 2 2 2 2 2 2 2 2 2 2 2 2 2 2 2 2 2 2 2 2 2 2 2
left_child=1 6 4 15 8 14 26 19 17 13 11 24 34 29 21 48 22 35 28 37 32 38 44 110 39 68 120 42 60 52 45 49 59 80 -12 94 63 74 103 40 124 54 -25 50 64 -15 70 82 72 -28 -18 107 88 73 66 81 100 104 91 -9 -10 -19 125 -23 115 -27 67 -26 85 101 -16 -40 -4 -13 -5 -38 -14 -44 -75 -35 -21 105 -22 -65 -33 118 -51 -24 -7 -78 -36 106 -61 -48 95 -2 -32 -83 -73 -42 119 -20 -89 -3 -29 -39 -47 -37 -74 -50 -8 -79 -101 -99 -63 -11 -93 -62 -17 -41 -1 -77 -45 -108 -6 -31
right_child=2 5 3 7 10 9 23 20 18 16 12 53 76 30 46 25 43 61 69 33 47 36 87 27 41 65 31 57 -30 62 96 84 -34 79 90 51 75 55 71 56 99 -43 77 122 -46 58 93 -49 109 86 -52 -53 -54 -55 -56 -57 -58 -59 -60 92 117 114 -64 83 -66 -67 -68 -69 -70 -71 -72 98 108 78 -76 121 89 111 -80 -81 -82 97 -84 -85 -86 -87 -88 102 -90 -91 -92 116 -94 -95 -96 -97 -98 113 -100 112 -102 -103 -104 -105 -106 -107 123 -109 -110 -111 -112 -113 -114 -115 -116 -117 -118 -119 -120 -121 -122 -123 -124 -125 -126 -127
leaf_value=0.0021720855468216975 0.013860975138807154 0.0078544918099322496 0.033635468713186505 0.045332042613108491 0.046642111332251872 0.015223631637653237 0.025962974668638252 0.051397726865939519 0.030838131016075479 0.040896095364643642 0.047903563606375779 0.030057979775652558 0.064558359660913139 0.036314481911308573 0.0017752479384770972 0.033685515929624071 0.015419697896832774 0.027760246523557425 0.02336025186654489 0.054977650640667869 0.059713448556946887 0.035985112778254218 0.036232719773247574 -0.0012326669845168206 0.0401457831534913 0.054493370869283859 -0.011293584824601844 0.013360985000982739 0.050627269992404862 0.022362878111263081 0.033814166414346744 0.0072294373214727313 0.062943807342630581 0.053700295075192986 0.031228705933596657 0.022883485836295701 0.025351742425886427 0.053054059100428264 0.034189758941555883 0.04087946882586499 0.027941776896248115 0.048745724467062546 0.0029419394395507129 -0.0020830982248523245 0.03469640802427397 0.019516453659881625 0.0099349138899068063 0.068109873555278547 0.013653364537223694 0.00012884279733445746 0.025528134613998717 0.032210574626103224 0.021065066887954696 0.024467757653803962 0.050409715921970064 0.058931697324143183 0.038736084260631048 0.021597366021386181 0.016303980981237892 0.054709396003087399 0.034861620550080165 0.033390698716902402 0.017550820474545644 0.013550567000935692 0.030538956044913156 0.04229338756548473 0.034214233344080698 0.051684203618921877 0.048809339640409857 0.036344727462243237 0.012671005672741683 0.013819229596234764 0.012473518614691663 0.043157411177426309 0.051176035657780776 0.041849259004756847 0.051235011651395296 0.0060733641343320519 0.028604452720335245 0.062062663456711242 0.046641352744088253 0.045265138359933295 0.066907557498855116 0.022687248950053206 -0.0042450763207613042 0.048907649544264242 -0.0074216625589477968 0.038847965881037082 0.0084707432393916794 0.057971954719378209 0.040766212120902597 0.030656833594395399 0.061132483841314263 0.017177192899324671 0.015044762113550832 0.025915322286489847 0.019570871378168101 0.056156128332516139 0.021474746800286711 0.044935347657467595 0.041304695315918565 0.034491816885578917 0.048205780234406054 0.014699842816873969 0.0051104362400915719 0.039832026655991559 0.036556258012227637 0.02960953839880406 0.046484384542509034 0.029926005387464649 0.010510298064526366 0.015098024767670321 0.032726544633425274 0.037753742925415994 0.038985417961054494 0.016839890870893194 0.018080892296719813 0.043463821254505132 0.041276424749616909 0.056873162404628974 0.017336451246893189 0.029045716998652164 0.030311446675935771 0.023799440482364261 0.037892263596906839 0.03464883903185461
leaf_weight=399.68328012526035 514.91168630123138 1998.2839983701706 1506.6626389473677 5499.1332296729088 1168.8727455586195 4284.6198116242886 699.50411100685596 3103.5633596479893 862.2911032140255 91.141681388020515 3543.1400126069784 2551.8426631391048 622.9142846763134 662.52885299921036 2011.6258933842182 1101.2698648422956 1582.5181501656771 1652.7045646160841 1098.173638805747 6683.911218047142 3860.0173908919096 287.78900720179081 1684.6198257356882 4295.8859026283026 2839.5101131796837 3008.4989497810602 5176.0846167355776 1471.4151642918587 2500.8960937857628 468.31612180173397 2903.2355541586876 1072.257602930069 5065.3826517760754 1230.2253329753876 794.24469700455666 3052.6233698576689 1532.1374383866787 491.44821166992188 327.6797888725996 241.97354826331139 2084.2081819176674 4864.9678240865469 3836.4329436868429 44.77867990732193 2985.8129170536995 2822.8983695954084 2801.8425628095865 5775.7994828224182 224.76346011459827 1622.4003886431456 2405.2244782298803 3492.5242886245251 1910.453615128994 1636.8791867941618 1079.8337503820658 2207.8260176330805 2107.582285836339 688.85607163608074 1784.4372429996729 2902.1312108188868 797.86588422954082 3812.1413274556398 819.52746988832951 1502.88731148839 1336.0154936611652 666.66511203348637 1515.1350111365318 873.89356951415539 1704.9889293164015 2632.7357167452574 922.66426227986813 1561.9524562209845 46.331857278943062 1098.5659577995539 3459.0778431296349 607.04906783998013 4496.042895168066 1469.4683482795954 487.74775664508343 5138.9290792942047 1167.9240620434284 713.02509649097919 1976.2775856256485 1693.6343065798283 919.23124843835831 831.36594575643539 3474.2924841344357 1114.3984303176403 2007.4750394970179 1994.4156810492277 4906.0675508826971 1842.2608748376369 2990.2067609578371 1894.6148283034563 1291.8837862312794 1937.8823906630278 319.45959860086441 2961.7812686264515 2518.3063421100378 423.58791433274746 649.84283721446991 745.65647105872631 1437.2294516414404 2732.29824231565 1638.591423034668 780.57169046998024 355.86699846386909 1786.4618041217327 903.44217501580715 1241.6997900158167 298.51067839562893 1035.2053876072168 1467.9293717443943 152.21251378953457 2635.4596629738808 991.56387685239315 360.14886032044888 3273.6521212309599 3223.1252798736095 784.89477610588074 414.31387630105019 539.08118645846844 3021.8912800848484 1409.6227885186672 1244.2279643118382 853.18248331546783
leaf_count=2054 2367 9810 5663 17658 3694 19606 2898 9090 3332 315 11083 9998 1505 2451 10391 4093 7208 6648 4576 18765 9958 1051 6161 22900 9939 8510 29934 6946 7632 2010 10940 5404 12431 3546 3049 12865 6372 1400 1239 816 8340 15099 19717 233 11068 12397 13604 12899 1028 8608 9950 13354 8290 6774 3278 5803 7491 3047 8122 8129 2901 14441 3690 6954 5206 2225 5678 2589 5278 9593 4371 7272 215 3624 10277 2133 13400 7373 1916 12834 3697 2306 4504 7212 5064 2537 19541 3979 9771 5422 16883 7289 7562 8570 5876 7943 1394 8139 10970 1371 2224 2771 4590 12654 8303 2724 1295 6991 2887 4826 1417 4808 5596 537 9317 4406 1602 10833 10968 2162 1889 2153 11906 5981 4423 3252
internal_value=0 0.0154502 0.0460425 0.054104 0.0385087 0.0221435 0.000794298 0.0569991 0.0329843 0.0256958 0.0425856 0.0394812 0.0477329 0.0218896 0.0160247 0.042859 0.0308944 0.0291423 0.0394918 0.0533012 0.0613898 0.019072 0.035108 0.0061408 0.0418172 0.0461456 -0.00551504 0.00508942 0.0434883 0.0171038 0.025862 -0.00653801 0.0583123 0.0567443 0.0426838 0.0258409 0.0241903 0.0502904 0.01562 0.03834 0.0355307 0.0449827 0.00287199 0.0251352 0.0304999 0.0235794 0.00991405 0.0651156 0.0340303 -0.00818022 0.0215176 0.0282367 0.0149323 0.0308453 0.0420796 0.0536008 0.0430812 0.0112975 0.0225948 0.0557036 0.0398683 0.0340635 0.025421 0.0198473 0.0253175 0.0522821 0.0403579 0.042863 0.0428575 0.0328531 0.00520233 0.0197093 0.0379658 0.0333668 0.0475894 0.0298385 0.0542928 0.00565305 0.0386861 0.0604486 0.0537385 0.0512911 0.062151 0.0183927 0.00193208 0.0408879 -0.00501781 0.0409857 0.0130696 0.0533063 0.0394382 0.0242473 0.0579703 0.0128573 0.0205095 0.0233863 0.0324035 0.0533984 0.0185451 0.0315218 0.048539 0.0278646 0.0441213 0.0118089 0.00901491 0.0449457 0.022156 0.0253675 0.0448289 0.0274344 0.0213445 0.00980459 0.0354639 0.0552585 0.0356784 0.0188704 0.0286022 0.0417795 0.0393446 0.0531107 0.00989419 0.0358319 0.0298377 0.0263739 0.0421332 0.0302984
internal_weight=0 90943.2 146184 70618.3 75566.2 62431.1 28512.1 56159.4 32087.9 39499.2 43478.3 27121.5 16356.8 22804 22931.8 14458.8 16695.2 20176.6 11911.3 30486.1 25673.4 15301.1 9640.78 15433.9 21346.5 10535.9 13078.3 14435.9 7434.71 10343.6 12460.5 12264.3 14061.3 14221 9243.45 12076.3 6162.58 16265.1 9138.52 10173.1 6388.83 11173.3 10637 7054.41 5404.53 9237.76 7630.75 11612.1 3922.9 10272.8 3987.74 8331.61 8202.55 5775.04 6308.37 7306.86 3784.29 3798.86 8575.24 8995.9 4933.81 8100.31 2141.03 3484.31 2418.72 3675.16 5228.54 3713.4 6860.75 4476.57 2934.29 4407.94 2456.44 4138.16 8958.21 2678.27 7113.37 6341.11 1586.31 6369.15 7851.84 5099.04 5836.29 3196.52 1991.49 5155.76 5096.69 4236.25 6292.09 6490.46 5700.31 6790.8 5892.34 4696.46 3744.68 2452.79 3222.7 3827.02 4080.26 3975.73 1676.71 1843.83 2551.63 4730.58 3110.01 1272.02 4588.39 4839.09 949.774 1466.46 998.015 2504.67 1891.52 3113.99 6447.6 1082.71 2202.41 4071.52 4324.4 1026.87 813.997 1146.13 3066.67 1765.49 2413.1 1321.5
internal_count=886054 417771 468283 200489 267794 267868 149903 152259 121440 163112 146354 95012 51342 98090 104756 48230 65022 79802 41638 87686 64573 67820 35725 77409 72700 33611 72494 73094 24698 46619 51471 68551 37212 38842 31015 49396 25875 48844 41945 36117 23424 36583 54798 29297 20995 39137 36936 27361 14619 58083 17158 33210 37667 22312 21484 20909 12693 18296 36686 24781 17066 30406 8952 15217 9927 10735 18206 12528 22876 16940 14762 19481 8765 15538 27935 10658 20327 31898 5540 16380 22462 15106 14462 14166 10468 17598 28149 14730 29377 18822 19932 28564 15691 22174 16186 10310 12334 10982 18242 15307 5202 7347 8569 22464 15249 4124 19673 19856 3102 5854 4315 12181 6967 8676 23758 4721 8891 13734 15061 2978 3943 4286 12139 7276 8117 5262
is_linear=0
shrinkage=0.02


Tree=3
num_leaves=127
num_cat=0
split_feature=0 0 0 5 5 0 0 0 27 27 24 27 5 39 27 5 39 18 27 5 0 24 11 2 0 0 34 34 27 18 39 2 11 11 34 18 2 11 34 24 30 23 11 2 31 2 23 5 31 5 5 31 2 31 11 23 2 34 2 2 0 30 27 11 24 0 39 5 5 23 34 24 2 27 0 11 34 5 2 27 11 5 24 27 0 27 39 11 0 2 11 4 24 2 5 0 30 39 5 35 11 27 2 26 11 27 18 18 5 27 23 39 37 34 11 5 18 0 31 5 18 11 34 11 39 11
split_gain=129569 19551.9 19449.8 5678.94 3217.02 3004.91 2545.65 2277.48 1629.97 1439 1316.44 1162.76 1159.47 1103.11 947.172 793.035 749.985 725.069 724.877 650.377 638.211 593.037 587.205 578.483 548.787 525.156 523.69 489.372 471.126 457.068 419.848 417.524 405.117 402.856 391.799 390.569 387.475 368.415 345.89 324.78 318.237 318.197 309.326 307.78 296.078 285.155 279.993 262.416 260.63 259.145 258.985 252.993 248.762 247.651 258.643 242.733 239.456 229.428 220.339 218.767 203.7 202.097 197.372 195.06 191.852 188.149 186.804 181.803 176.019 175.207 170.617 166.989 166.861 166.51 160.735 159.454 156.023 154.867 154.095 150.785 148.642 148.632 145.956 143.66 143.596 139.699 135.17 128.207 128.187 126.744 123.404 122.052 121.978 120.576 120.509 119.916 119.758 118.611 117.669 116.986 116.59 116.531 115.255 114.709 114.617 122.787 113.622 113.255 112.043 111.518 111.472 111.412 112.086 110.395 110.355 110.151 109.252 107.945 107.898 106.971 105.293 105.292 104.397 101.517 101.346 100.999
threshold=10.500000000000002 5.5000000000000009 15.500000000000002 0.184622485753342 0.19213235355722189 8.5000000000000018 20.500000000000004 3.5000000000000004 38.500000000000007 1.0000000180025095e-35 14041.500000000002 30.500000000000004 0.080000853351538184 2.5000000000000004 1.0000000180025095e-35 0.17500109376367207 2.5000000000000004 1.0000000180025095e-35 37.500000000000007 0.075003750375037523 13.500000000000002 14041.500000000002 6.5000000000000009 25.665000000000003 20.500000000000004 12.500000000000002 1.0000000180025095e-35 1.0000000180025095e-35 1.5000000000000002 1.5000000000000002 2.5000000000000004 16.555000000000003 7.5000000000000009 5.5000000000000009 1.0000000180025095e-35 1.5000000000000002 14.215000000000002 5.5000000000000009 1.0000000180025095e-35 22300.500000000004 25212.500000000004 281146.00000000006 4.5000000000000009 16.925000000000004 6.3150000000000004 19.925000000000004 29401.000000000004 0.19999384653252111 15.225000000000003 0.29885764040939322 0.037931436942593134 18.245000000000001 15.235000000000001 13.600000000000001 5.5000000000000009 173941.00000000003 25.405000000000005 1.0000000180025095e-35 19.275000000000002 21.855000000000004 26.500000000000004 5612.5000000000009 1.0000000180025095e-35 4.5000000000000009 4742.5000000000009 12.500000000000002 2.5000000000000004 0.06667716379847978 0.10390383426097714 162748.00000000003 1.0000000180025095e-35 4440.5000000000009 14.685 46.500000000000007 25.500000000000004 10.500000000000002 18.000000000000004 0.1972695927686143 17.865000000000006 8.5000000000000018 7.5000000000000009 0.058189269746646802 13666.500000000002 63.500000000000007 11.500000000000002 56.500000000000007 2.5000000000000004 8.5000000000000018 12.500000000000002 22.715000000000003 3.5000000000000004 0.23503165322885258 21181.500000000004 23.935000000000006 0.26316482030910221 19.500000000000004 9812.5000000000018 2.5000000000000004 0.31999675955930013 0.82500000000000007 3.5000000000000004 44.500000000000007 20.025000000000002 56.500000000000007 6.5000000000000009 46.500000000000007 1.0000000180025095e-35 3.5000000000000004 0.22188424556213018 1.0000000180025095e-35 75068.000000000015 2.5000000000000004 1.0000000180025095e-35 1.0000000180025095e-35 4.5000000000000009 0.2074136531134845 2.5000000000000004 7.5000000000000009 16.045000000000005 0.27779513888888896 2.5000000000000004 4.5000000000000009 18.000000000000004 6.5000000000000009 2.5000000000000004 6.5000000000000009
decision_type=2 2 2 2 2 2 2 2 2 2 2 2 2 2 2 2 2 2 2 2 2 2 2 2 2 2 2 2 2 2 2 2 2 2 2 2 2 2 2 2 2 2 2 2 2 2 2 2 2 2 2 2 2 2 2 2 2 2 2 2 2 2 2 2 2 2 2 2 2 2 2 2 2 2 2 2 2 2 2 2 2 2 2 2 2 2 2 2 2 2 2 2 2 2 2 2 2 2 2 2 2 2 2 2 2 2 2 2 2 2 2 2 2 2 2 2 2 2 2 2 2 2 2 2 2 2
left_child=1 7 4 12 8 10 16 26 19 20 14 15 50 29 34 52 41 33 24 72 40 42 38 30 59 53 110 109 46 88 60 79 44 67 -3 89 47 65 -16 48 45 56 68 77 -28 49 100 -12 121 -6 64 93 -7 54 -21 78 85 -17 86 99 120 91 96 -23 -4 122 104 -10 -13 -34 -15 -46 -2 107 116 117 -39 -36 -24 -29 98 -78 119 -38 -31 -5 -27 -68 -11 95 -26 -40 -75 -48 -50 -20 -32 -44 -72 -14 -18 -71 -73 -43 -33 -106 -56 -52 -53 -9 -1 -63 -113 -70 115 -81 -25 -45 -67 -59 -8 -22 -19 -47 -125 -54
right_child=2 5 3 6 9 11 23 27 17 13 36 21 18 70 22 57 28 37 35 25 39 63 55 74 90 58 32 31 -30 84 62 66 69 -35 43 -37 83 76 61 -41 -42 103 97 75 71 123 51 -49 94 -51 73 108 125 -55 106 -57 -58 82 -60 -61 -62 111 -64 -65 -66 118 87 -69 113 101 80 102 -74 92 -76 -77 81 -79 -80 114 -82 -83 -84 -85 -86 -87 -88 -89 -90 -91 -92 -93 -94 -95 -96 -97 -98 -99 -100 -101 -102 -103 -104 -105 105 -107 -108 -109 -110 -111 -112 112 -114 -115 -116 -117 -118 -119 -120 -121 -122 -123 -124 124 -126 -127
leaf_value=0.019796009155468482 0.015526407806486656 0.02843611794306853 0.035393740869742556 0.045355956027290791 0.029309424244398832 0.012954028065566893 0.053638341380957189 0.013705631891739564 0.028367654483428293 0.040444553081746715 0.0024814752362730895 0.019853672354712092 0.033299788480231511 0.060431108189672358 0.036466478402898107 0.036530877427381411 0.039548661913172425 0.033885693118079228 0.047379377511240522 0.023911840880057888 0.041184845473943507 0.017999120513971092 0.02919391036990264 0.061864183975758644 0.042539804163782391 0.027504196717601466 -0.011739241170667837 -0.00030903996288088239 0.058259837436956986 0.029306799314770326 0.048131253268455076 0.0035000102327356563 0.0098811249682442936 0.049204949857633781 0.0093950981675268372 0.043497211969886415 0.012198870202300205 0.047488049382091918 0.0091165628715499068 0.031496296797279895 0.027186863944612189 0.039533944892963531 0.033459203894951946 0.014733786641902273 -0.00049937187745215886 0.0366109477060119 0.051609867444721839 0.01309699034498198 0.031248345946747077 0.037797773960666817 0.035059905317902679 0.026991915093296674 0.017991496831092336 0.019316500239840172 0.038700468562003383 0.021660716901944554 0.052559295223709487 0.024029106207642332 0.037289494705420319 0.0436885223720547 0.058349535228993388 0.017234565199234581 0.06398350794788589 0.027937947207502058 0.018554966186262522 0.033258297156007047 0.01109565891414686 0.040439026192852064 0.045158488784628109 -0.0055417202992307851 0.045746463458526447 -0.0096153347524307094 0.024287225851978615 0.044936869773182189 0.065887472975483002 0.027128099392090321 0.024707641395357537 0.015629934272235028 0.040328747483695609 -0.0013997593785144327 0.055223224823795124 0.037749829753004248 0.020415506608667276 0.019788369057798558 0.037830692683430409 0.051552346234699974 0.034123373839411178 0.024692425472091082 0.047422580413324193 0.05866085780977412 0.050443544949252746 0.028359881844972144 0.030546275999815433 0.057824066619526618 0.040270039926778828 0.056381132552149778 0.058450043426388466 0.040172694825293946 0.051965622257764937 0.039721202701278886 0.048682730386578603 0.0087338015658332026 -0.0020190560364862884 0.047112077451517881 0.007277142297491648 0.020753599878080727 0.029295093010684128 0.02296181995533126 0.046376745925085831 0.027805966787552365 0.0045117144252350451 0.021155965972443239 0.030457695665185368 0.030006820737492036 0.010628085591495069 0.011428901310404837 0.055413208823090337 0.020202008707286331 -0.0059133133719759725 0.029161774149453899 0.048511209734133497 0.046938343749720612 0.021115635808009282 0.038182596449729621 0.046297887446316695 0.025099204520531635
leaf_weight=286.04847021400928 1619.0027384310961 932.95808778703213 462.16866566240788 6383.3273504823446 3692.2519226670265 3396.6689320802689 4734.6959239691496 512.68138521909714 608.20357656478882 1664.5045878440142 2903.3984794914722 687.07785648107529 2791.0862525254488 647.22948482632637 510.4402247518301 725.93747755885124 1001.3234851360321 318.59582118690014 1389.7019717097282 2717.6450084447861 1949.4005895555019 1486.2091944366693 882.17077106237411 5254.9407108277082 1170.4646667540073 2676.3837904185057 4835.9364366978407 5227.0631202757359 5386.4963724464178 987.35002960264683 503.34151074290276 2759.5877085924149 686.34111203253269 2247.9062205702066 3881.4505113512278 2159.3013253957033 5201.0576045364141 554.96666146814823 977.65945710241795 1226.7434425652027 2049.1239637285471 2416.8745126724243 1942.4109495133162 3495.2338183373213 2074.5215446203947 3665.9554114490747 2512.6738176345825 1371.8605551868677 856.57988739013672 2365.7550920695066 2318.8240084797144 140.11245445907116 2210.5782345235348 1806.3609519153833 888.96007178723812 677.68569488823414 4415.1596611738205 3645.278630822897 3222.3698785454035 2108.2572756409645 2696.3619878292084 1645.6454663127661 2905.4071476608515 1692.4435778558254 656.25747448205948 1996.1690580248833 2073.1531834304333 2843.7173221558332 212.21858942508698 1075.1664483696222 3307.1595085412264 2869.7692809551954 1885.9317639917135 1127.3065936714411 3500.9632006287575 695.09066516160965 410.31798192858696 2707.9555115997791 1150.1894530802965 1009.1411529928446 1498.5241558104753 2430.0058560222387 2246.4985273629427 1236.2451239228249 4061.6104282438755 1902.859498411417 2306.7398142367601 320.6378960609436 2924.7454854696989 1511.9297668635845 2496.5196107923985 152.50539779663086 300.40215727686882 2536.7943348884583 1956.624171808362 1048.6714354604483 4744.9540981203318 2328.3053586930037 1952.7720427066088 1931.1276055425406 1288.5406872928143 290.35397349298 1108.2570176273584 1206.8726977854967 1216.3892740160227 348.10847397148609 1232.573314473033 359.32847210764885 843.88373349606991 400.68512244522572 574.96715708076954 1724.4269686490297 744.29072196781635 2160.8553612828255 1045.0334222763777 364.19671353697777 1335.2068778127432 2469.8461685329676 28.413497373461723 2950.9032444655895 2463.1856017708778 3759.9753490537405 1327.2469123750925 1373.0629182904959 1132.7570219188929 1258.8646672666073
leaf_count=1245 7191 3624 1650 19403 14050 15621 12573 2354 2339 5496 14846 2911 10041 1529 1793 2578 3282 1156 4075 11097 6376 6458 3454 11951 3695 10421 28283 27556 13167 3735 1464 14089 3370 6589 18617 6691 24440 1698 4617 4532 7954 7944 7093 15865 11072 12749 6972 6393 3116 8144 8312 524 9691 7674 3101 2827 12023 14893 11197 6685 6577 7203 6311 6703 2801 7246 9890 9319 661 5978 9980 16495 7685 3498 7350 2812 1640 12242 3951 5354 3942 8354 9587 5373 13820 5280 8383 1354 8765 3736 7064 604 1118 6334 6400 2664 11488 7834 5419 6429 3762 1449 6021 3582 6010 1521 4762 1457 2466 1581 2902 7299 2893 8182 5047 1756 3407 10658 145 11424 7070 11436 5473 4692 3515 5154
internal_value=0 0.0138514 0.044189 0.0509808 0.0366623 0.0203468 0.0542452 0.000380605 0.0318116 0.0403377 0.0163342 0.0253146 0.0422816 0.0447837 0.0190668 0.0219915 0.0501945 0.037301 0.0448675 0.0279938 0.0371838 0.0305109 0.0243616 0.0585686 0.0416773 0.0298231 -0.00550812 0.00570077 0.0536456 0.0403214 0.0564214 0.00479783 -0.00651316 0.0426101 0.0159063 0.0503477 0.0105569 0.0330173 0.0207451 0.0411304 0.0344887 0.0472959 0.0336402 0.0150237 -0.00804935 0.0357117 0.0506585 0.00588851 0.0425165 0.0326252 0.0340606 0.0529222 0.0168038 0.0256416 0.0280018 0.0320396 0.0487894 0.0257136 0.0332091 0.0383235 0.0536473 0.0192139 0.0597866 0.0232923 0.0255176 0.0286207 0.00843557 0.0383136 0.0287814 0.00163782 0.0505904 -0.00510068 0.0202415 0.0363865 0.062408 0.0180564 0.0377687 0.0119578 0.0354982 0.00160109 0.0496468 0.0358674 0.0248249 0.013657 0.0361648 0.0467798 0.0305693 0.0129187 0.044893 0.0540906 0.0479225 0.0117173 0.0419127 0.0547333 0.037525 0.0512537 0.0574617 0.0371206 0.0480567 0.035927 0.0446913 -0.0025044 -0.00749966 0.0420596 0.00595305 0.0102781 0.0332387 0.0334384 0.0436216 0.0198959 0.00959353 0.0212723 0.0239623 0.0313645 0.00573031 0.00200141 0.0605583 0.0169985 0.0327073 0.026326 0.0518848 0.044975 0.0235907 0.0387405 0.0418536 0.0205717
internal_weight=0 89382.4 152199 80005.3 72193.6 60304.4 58174 29078 31121.5 41072.1 33360.1 26944.3 21831.3 17043.9 22647.5 16434.7 30034.9 12765.5 16607.1 18356 24028.2 10509.5 8465.01 28139.1 10497.5 14851 13801.4 15276.7 13709.8 9638.21 18047.9 14363.3 12940.3 5699.83 14182.5 6109.6 10712.6 7065.72 5754.97 9749.32 14278.9 16325.1 7330.87 13249.6 10888.5 12229.8 8323.33 4275.26 8522.58 6058.01 5224.29 6033.46 6866.11 6645.54 4839.18 2710.05 12701.3 9568.62 8205.49 6830.47 9894.24 5244.53 8153.7 3178.65 1118.43 3670.43 6717.88 3451.92 3060.15 2051.86 7405.69 6052.55 3504.93 4105.86 10091.1 6660.17 3395.29 6589.41 2032.36 7645.43 6758.46 2840.32 8842.68 6437.3 5048.96 8286.19 4983.12 2393.79 4589.25 3950.3 3666.98 1130.16 1427.71 5049.47 2813.2 2438.37 5248.3 4270.72 5259.93 4722.21 2289.86 1365.52 3978.03 3623.75 4324.09 1564.5 2121.53 2678.15 983.996 913.367 861.016 4114.36 2468.72 2373.07 2418.37 1373.34 6590.15 5965.08 2024.58 6596.18 7197.88 5709.38 1645.84 6171.78 2505.82 3469.44
internal_count=885594 411628 473966 222846 251120 258301 152930 153327 115470 135650 149511 108790 69916 52686 98459 68948 84739 43959 51080 71511 82964 39842 34641 68191 33914 56635 76815 76512 36507 31816 45483 72577 72668 18247 63818 17166 51052 25712 24409 31860 51104 48232 26681 60194 61871 43150 23340 21239 27328 22194 18836 16296 30466 26634 18960 10232 36706 38482 30001 23155 26220 22616 19263 13161 4451 14020 32864 11658 11754 10797 20870 33588 14876 14385 22708 29335 11692 30859 7405 39713 19341 9994 35904 29813 17555 24683 18804 11244 14261 10475 10759 5221 4616 13306 9516 6739 12952 14927 15399 16470 7044 7427 22516 11526 21620 7531 7863 9769 2990 3935 4147 17395 10192 8843 12157 7110 15358 26523 7391 26317 19643 17812 6629 20956 8207 14845
is_linear=0
shrinkage=0.02


Tree=4
num_leaves=127
num_cat=0
split_feature=0 0 0 5 5 0 0 0 0 27 24 27 27 5 24 34 24 11 21 27 21 21 5 24 24 18 34 34 27 21 21 11 21 18 11 11 27 27 5 27 21 0 32 5 39 11 31 21 31 27 5 29 0 5 18 0 5 27 5 32 24 39 28 21 28 24 0 21 5 24 32 21 31 5 32 39 4 11 5 18 24 0 5 21 3 18 11 29 21 27 5 29 39 34 39 5 18 5 22 39 21 4 27 18 22 3 39 32 4 39 5 27 11 11 34 32 32 18 5 27 11 39 11 27 27 24
split_gain=117687 18269.3 17703 4088.07 3713.47 2854.01 2212.76 1809.81 1749.59 1361.24 1220.8 1096.44 997.244 835.759 833.377 812.044 809.435 727.333 708.973 626.468 618.942 616.35 608.129 602.719 601.468 588.187 513.22 510.463 481.065 428.665 424.311 413.108 412.781 412.602 409.62 392.054 390.665 378.519 366.965 381.691 365.284 360.275 346.62 372.855 306.535 299.694 298.595 279.433 271.969 270.795 256.636 248.186 246.128 232.141 232.133 213.498 211.629 198.649 195.161 183.113 181.217 178.508 177.307 175.77 173.69 168.892 167.548 166.178 164.555 162.923 158.441 155.623 153.624 151.298 161.277 148.262 147.711 146.038 143.872 142.517 141.769 138.75 135.994 134.592 133.098 132.793 128.976 127.483 127.24 126.831 126.207 124.557 123.548 123.321 123.045 121.247 120.898 120.493 119.216 118.273 116.933 115.92 115.14 114.869 114.722 115.073 114.627 113.905 113.774 113.225 112.345 111.418 110.271 110.191 109.893 109.107 109.032 107.781 107.416 106.035 105.304 122.468 105.135 104.295 103.047 102.437
threshold=10.500000000000002 5.5000000000000009 16.500000000000004 0.18180194805194808 0.16625051953449713 8.5000000000000018 3.5000000000000004 13.500000000000002 21.500000000000004 32.500000000000007 14041.500000000002 1.0000000180025095e-35 1.0000000180025095e-35 0.060002280173293177 14591.500000000002 1.0000000180025095e-35 10701.500000000002 6.5000000000000009 5.5000000000000009 44.500000000000007 4.5000000000000009 5.5000000000000009 0.17500109376367207 19078.000000000004 7730.5000000000009 1.5000000000000002 1.0000000180025095e-35 1.0000000180025095e-35 38.500000000000007 4.5000000000000009 4.5000000000000009 5.5000000000000009 4.5000000000000009 1.5000000000000002 7.5000000000000009 6.5000000000000009 29.500000000000004 37.500000000000007 0.30304014231541998 57.500000000000007 3.5000000000000004 12.500000000000002 815.3950000000001 0.24590536512667663 2.5000000000000004 4.5000000000000009 6.4250000000000007 6.5000000000000009 23.895000000000003 46.500000000000007 0.15789639892695803 45999.500000000007 22.500000000000004 0.26530110295229992 1.5000000000000002 20.500000000000004 0.045456198467326556 23.500000000000004 0.063638967155163942 677.10500000000013 4440.5000000000009 2.5000000000000004 48412.000000000007 5.5000000000000009 7303.5000000000009 14410.500000000002 4.5000000000000009 2.5000000000000004 0.092599798241821601 24466.000000000004 153.24000000000004 3.5000000000000004 14.465000000000002 0.31999675955930013 600.16500000000008 2.5000000000000004 0.092012843474947911 7.5000000000000009 0.36925824175824179 1.0000000180025095e-35 18157.500000000004 12.500000000000002 0.28462027172319426 2.5000000000000004 45.250000000000007 1.0000000180025095e-35 7.5000000000000009 42999.500000000007 3.5000000000000004 39.500000000000007 0.050000312503906304 79999.500000000015 2.5000000000000004 1.0000000180025095e-35 2.5000000000000004 0.13521380687974 2.5000000000000004 0.096562965408077614 150889.50000000003 2.5000000000000004 5.5000000000000009 0.23852063829787237 74.500000000000014 3.5000000000000004 236842.00000000003 38.750000000000007 2.5000000000000004 663.24000000000012 0.055494413580246919 2.5000000000000004 0.068860191772347687 44.500000000000007 5.5000000000000009 7.5000000000000009 1.0000000180025095e-35 671.86500000000012 789.59500000000014 3.5000000000000004 0.065554776191371081 24.500000000000004 2.5000000000000004 2.5000000000000004 8.5000000000000018 56.500000000000007 49.500000000000007 20371.500000000004
decision_type=2 2 2 2 2 2 2 2 2 2 2 2 2 2 2 2 2 2 2 2 2 2 2 2 2 2 2 2 2 2 2 2 2 2 2 2 2 2 2 2 2 2 2 2 2 2 2 2 2 2 2 2 2 2 2 2 2 2 2 2 2 2 2 2 2 2 2 2 2 2 2 2 2 2 2 2 2 2 2 2 2 2 2 2 2 2 2 2 2 2 2 2 2 2 2 2 2 2 2 2 2 2 2 2 2 2 2 2 2 2 2 2 2 2 2 2 2 2 2 2 2 2 2 2 2 2
left_child=1 6 4 13 9 10 26 12 23 18 15 22 21 80 19 119 61 38 41 29 37 42 47 28 45 31 106 87 32 73 48 56 53 52 46 51 63 55 39 71 64 -2 43 120 96 70 -28 118 78 91 86 -29 89 -5 110 -15 -11 116 117 82 -48 -14 -36 -19 -24 -42 -53 -45 -26 84 76 -17 -18 83 -75 -30 -13 -35 -10 112 -4 -58 -23 -9 -27 -50 111 -8 -16 -22 -33 -37 -38 -63 -65 -73 -32 -56 -39 -31 -68 -76 114 -90 105 -49 -1 -66 -97 -34 -20 -12 -21 -95 -72 -67 -52 -43 -7 -3 -6 -122 -70 -25 -62 -60
right_child=2 5 3 8 7 11 27 14 30 25 50 24 16 20 88 17 72 36 54 79 33 59 40 123 68 69 34 35 75 99 44 90 109 77 62 49 92 98 -40 -41 65 58 -44 67 -46 -47 60 104 85 -51 57 66 -54 -55 97 -57 81 -59 125 -61 124 93 -64 94 107 115 100 -69 122 -71 102 95 -74 74 101 -77 -78 -79 -80 -81 -82 -83 -84 -85 -86 -87 -88 -89 103 -91 -92 -93 -94 113 -96 108 -98 -99 -100 -101 -102 -103 -104 -105 -106 -107 -108 -109 -110 -111 -112 -113 -114 -115 -116 -117 -118 -119 -120 -121 121 -123 -124 -125 -126 -127
leaf_value=0.0058332191671215117 0.018549758513383533 0.027760442089298318 0.033195062102046487 0.039085623777289448 0.019654209288732138 0.0073115295756936965 0.028553443371145324 0.031919630656210451 0.048188721513864198 0.021807066490678335 0.0029421371826949378 0.0037693854444103047 0.039956603796531355 0.030953679749340459 0.033235719805749457 0.009732507155277079 0.033153847771245325 0.015990938281592166 0.027397419431203451 0.04889863468895863 0.044120334758226638 0.037473455831773132 0.028051523193721523 0.040216918927771766 0.017038301828199372 0.026478831459301792 -0.01141221342291425 0.0088909342126750474 0.051249117627932862 0.04306197869227351 0.057672049909027329 0.032890001693509009 0.049103683417425104 0.037895454233617738 0.011079357782639212 0.012020990634696343 0.025352959964195319 0.049231485209273437 0.022103672402965638 0.021042508057621916 0.030602594859123797 0.02106691352681413 0.019158282843064069 0.03040647710225149 0.061785440084663482 0.036885783540564744 8.0789780225709915e-05 0.019074350844366143 0.060675656624197327 0.021534317121982054 0.011841523762448932 -0.0017794010541368889 0.056471772984361054 0.046999636792313969 0.021913501213189749 0.040141009359321446 0.03176026919903991 0.017974246662649757 0.029485986608010488 0.029816480663210958 -0.0091639210960720151 0.056668169317579731 -0.0018593801354593168 0.019577707372158165 0.020267781573987908 0.025550389024186659 0.0022996204369373349 0.036787183440993396 0.024572777465862863 0.024135600326743431 0.043092623699674606 0.0105683160114191 -0.0034674143712386009 0.044855829527019928 0.04366272112607307 0.056684268930864617 0.028030908473830236 0.046144104206140096 0.054550277863586606 0.045785525989768656 0.021769131884674327 0.039238534094329161 0.045194014811114881 0.03942808488472202 0.035447581678361956 0.053051359496131774 0.013908188493940949 0.013620434424593816 0.041062498066543836 0.051242868201029718 0.045559294700919538 0.0038218386432893004 0.034784590957919546 0.043532066103423278 0.030262807932924917 0.028845314129006969 0.05259626910583725 0.030563082093596008 0.037637639572966938 0.048395949737037078 0.01017244010032642 0.029390052991566176 0.038162748794041669 0.034165686744332728 0.013887765394559328 0.032343032688411773 0.02373789774455216 0.011513289472291906 0.015925261545087797 0.053858837536063464 0.036579384269185104 0.0098559650897622596 0.055253406016509875 0.051245479192801362 0.026136854378486118 0.011529454189812978 0.0024796006491614067 0.0026133438611215891 0.015469792130495414 0.037970649133478383 0.02422505460947158 0.03187070807228274 0.033695966632303495 0.046759152626604704 -0.0013646783035963436 0.022310236044705185
leaf_weight=697.76390270888805 4080.2811274528503 1071.4672449976206 1960.6979502886534 2016.8100231289864 775.84188337624073 760.39969581365585 403.77143332362175 1709.4196909815073 3927.2056773900986 456.2364899367094 2572.2311055958271 189.93121141195297 2848.0786926597357 2448.6439266055822 2630.1565926969051 5733.2950800359249 3904.6534073352814 2477.0471765697002 652.09794434905052 2507.1169645935297 2399.6024105846882 2704.8595582842827 955.63605886697769 3067.3980509191751 1056.4071811884642 1035.3890685290098 5034.7455457150936 2198.1971014142036 3691.7398430407047 3215.3768715411425 5603.027087688446 356.73875500261784 4187.5258590579033 2259.4793849289417 595.41749358177185 1440.1692694574594 1195.2104940116405 1234.9337915480137 2402.9428400695324 2229.440706923604 3482.4847503900528 914.93720492720604 1086.372038602829 2943.5501815229654 6326.934543505311 3792.2107356190681 2019.9706266075373 423.57944336533546 2116.2194322794676 712.20097644627094 3125.8511792272329 3793.643602758646 1553.2797978520393 5683.9566335827112 1051.4991458952427 1732.9643819630146 1687.0268822908401 2164.7166459411383 3827.8492585122585 838.63013182580471 2895.768454387784 422.68590289354324 1467.2700684070587 985.30889965593815 2887.7239929586649 789.00967283546925 3828.9987541586161 3697.0585162490606 3464.7014843076468 1518.4494545757771 169.38926577568054 1683.2093810737133 46.245663031935692 2307.5203751623631 379.48512051999569 4484.2800178527832 213.37993465363979 1397.3107576966286 2256.9944228827953 2595.090303003788 560.6144445091486 2439.2521001547575 1389.4759616404772 2188.5578194707632 1856.6182188689709 1637.994766458869 878.61269074678421 529.93554432690144 2972.0052339881659 1738.3740770816803 2825.4662483632565 1528.9983052462339 1046.050911962986 3272.3119018524885 770.57282619178295 309.60134382545948 2869.9006130993366 1679.2663657218218 503.43093581497669 3503.3354400247335 940.18392999470234 576.58038868010044 556.80641753971577 1445.1595741659403 332.32135747373104 689.8192520737648 180.02622447907925 750.72466558218002 2320.1223783791065 3916.2949009686708 3012.3679217845201 1463.5668110996485 1972.4374304711819 968.38349695503712 1632.58014126122 310.11926719546318 592.55500388145447 147.25939939916134 4322.5497481971979 661.4602414816618 1778.7942635715008 1595.9124832749367 594.2289804816246 1446.1074817180634 885.50221499800682 1010.395141094923
leaf_count=3446 17230 4076 6898 6291 3172 3630 1575 5980 10497 1841 13051 906 8998 8711 9129 26935 13668 10980 2521 6794 7210 9069 3664 9478 4577 3902 29616 10673 9535 9726 12745 1261 11273 7231 2903 6793 4699 3297 9992 9289 12979 3763 4515 10581 13100 12761 10736 1803 4467 3044 14630 20229 3730 15700 4301 5397 5970 9468 14149 3099 16688 985 7919 4200 11947 3146 19681 12390 13751 5927 517 7854 224 6751 1149 10318 808 4006 5416 7480 2262 7835 4175 6971 6345 4013 4049 2375 9394 4520 8295 7745 3715 9700 2977 1217 7164 6163 1608 9795 4531 2056 1873 4965 1495 2587 751 3394 10266 9662 10321 6917 4837 2542 6273 1415 3002 716 19167 2202 6940 5746 2132 4047 4799 4045
internal_value=0 0.0135606 0.0422642 0.049631 0.0360962 0.0197798 0.000535077 0.039077 0.0524052 0.0302207 0.0158815 0.0245765 0.0355067 0.0413294 0.0426816 0.0184969 0.0400569 0.0174182 0.0264543 0.0446833 0.0430916 0.0324039 0.0211253 0.0490254 0.0292205 0.0352861 -0.00528604 0.00575073 0.0502883 0.0422124 0.0562978 0.0386006 0.0482482 0.046298 -0.00629316 0.0048239 0.0230032 0.0380274 0.0149546 0.0135549 0.0244457 0.0231219 0.0299344 0.0310189 0.0584473 0.0332331 -0.00784818 0.0164581 0.053096 0.0104579 0.0103376 0.00289624 0.0496694 0.0449278 0.0316543 0.0347625 0.0347521 0.0131561 0.0262829 0.0383487 -0.00475457 0.0439128 0.00187492 0.019426 0.0204581 0.0284433 0.001357 0.0339596 0.0240784 0.0294498 0.0282161 0.0118929 0.0327246 0.0388042 0.0419883 0.054231 0.0166142 0.0410491 0.0505116 0.0495304 0.0306563 0.0361824 0.0400951 0.0361367 0.0322383 0.0573511 0.00696291 0.0200826 0.0367287 0.0471142 0.0441407 0.00779971 0.0297572 0.0463276 0.0242695 0.0147639 0.0559537 0.0272342 0.0458774 0.0458442 0.00385225 0.0350613 0.0301983 0.0388074 0.0242188 0.0272991 0.00950986 0.0184624 0.0174482 0.0514026 0.0349468 0.00545009 0.0516984 0.0452951 0.0277341 0.0215976 0.0103503 0.0185109 0.0142499 0.0316608 0.0263126 0.0278421 0.0259097 0.0423145 -0.0073381 0.0279883
internal_weight=0 90209.8 155848 71021.7 84826.2 61057.3 29152.6 56275.1 53232.4 28551.1 33683.3 27374 28272.9 17789.3 28002.2 22885.7 11462.4 21152.8 16376 20954.9 15268 16810.5 15704.4 28494.1 11669.6 12175.2 13776.5 15376.1 23980.6 13880.3 24738.3 7764.72 15804.6 9348.05 12898.7 14442.4 6474.19 5919.97 14678.6 12275.7 9175.7 9980.72 11877.5 10791.2 14799.9 6554.3 10836 6528.67 9938.41 3681.37 10797.5 10761 5691.26 7700.77 6395.23 4181.61 4582.52 5883.12 5900.44 4932.97 5801.24 7511.46 2062.69 4232.93 4594.08 4581.61 8562.83 6640.61 5115.34 4410.46 2762.09 10046.2 3950.9 7161.56 3263.59 8176.02 403.311 3656.79 6184.2 7074.64 2521.31 4126.28 4094.34 3897.98 2892.01 3754.21 4914.41 933.707 7047.32 4137.98 3182.21 2969.17 2241.26 4663.38 1755.88 4312.93 8472.93 2730.77 1738.36 6718.71 4769.18 956.066 2358.78 4417.16 1445.72 1113.4 877.79 3638.45 2629.72 8103.82 3664.47 4035.8 4479.55 4240.7 1801.97 1099.13 3718.41 1062.2 5082.95 1732.93 4150.55 3374.71 4058.93 4513.51 3781.27 4838.24
internal_count=885840 411848 473992 188576 285416 258344 153504 180831 133706 104585 149519 108825 95804 54870 85027 98402 36117 92124 63209 61539 45710 59687 65227 76304 43598 41376 76858 76646 62779 42428 57402 25202 42926 26697 72661 72696 26571 19013 65553 55561 36545 39903 43344 38829 33009 23138 61839 28682 24393 17582 51117 55114 15460 21991 23306 14108 15646 27100 22673 16343 32223 22225 10822 18157 19005 17540 44441 22971 20460 16174 10377 46272 13892 22907 9956 19853 1714 11237 15913 19111 9160 13805 13244 12951 10247 8480 24017 3950 23488 11730 9556 14538 8414 13227 7177 19337 19909 10464 4905 19521 24212 3205 8663 14359 5885 4390 4197 15341 11483 20935 12842 19968 11631 12242 6790 4561 17632 4479 22797 6278 15858 12686 15883 13525 21487 18194
is_linear=0
shrinkage=0.02


Tree=5
num_leaves=127
num_cat=0
split_feature=31 31 31 33 33 27 33 27 27 31 24 21 24 24 21 39 24 5 24 21 31 24 29 2 29 5 34 34 2 21 33 39 31 34 5 2 31 5 39 21 31 39 34 24 34 30 39 5 24 34 2 2 2 31 34 21 24 2 2 5 34 29 2 2 5 2 2 21 31 2 31 21 21 2 2 21 28 5 8 4 21 5 31 2 24 2 28 31 2 39 2 2 35 2 2 32 27 23 28 34 34 28 21 2 5 24 23 2 32 2 27 24 36 2 5 24 35 8 5 5 8 39 39 4 5 23
split_gain=100038 18406.1 15976.5 4581.7 4520.45 3486.08 2664.44 2703.72 2208 2072.1 1755 1449 1445.69 1406.16 1370.05 1053.67 1041.86 849.595 764.926 759.062 754.305 752.229 728.6 570.18 566.038 560.506 513.729 491.245 481.866 456.324 443.398 421.547 409.45 406.637 375.998 373.205 365.808 365.757 361.396 360.587 337.606 310.218 301.404 297.057 289.445 289.294 266.492 250.913 248.941 242.707 241.606 240.12 233.225 214.59 213.546 206.956 202.635 199.529 193.93 183.251 181.38 180.407 177.129 170.455 165.704 165.61 165.312 163.946 163.106 162.148 159.656 157.883 156.564 153.124 150.21 149.388 148.871 146.36 145.805 145.105 144.829 144.616 144.4 142.766 141.764 141.697 141.207 139.708 138.255 137.922 134.289 132.341 131.196 131.049 131.009 130.831 130.198 128.286 127.614 124.539 122.982 122.733 121.585 121.4 118.875 118.266 116.882 116.707 116.155 115.512 115.459 113.787 113.154 111.509 111.309 109.544 108.989 106.265 120.245 104.861 104.394 103.484 103.163 102.636 102.319 125.207
threshold=12.510000000000002 8.2150000000000016 16.520000000000003 48.000000000000007 48.000000000000007 1.0000000180025095e-35 48.000000000000007 10.500000000000002 1.0000000180025095e-35 7.2250000000000005 14591.500000000002 3.5000000000000004 15797.500000000002 11557.500000000002 3.5000000000000004 2.5000000000000004 10701.500000000002 0.075003750375037523 20371.500000000004 5.5000000000000009 10.745000000000003 13666.500000000002 52001.500000000007 24.165000000000003 65002.000000000007 0.1972695927686143 1.0000000180025095e-35 1.0000000180025095e-35 21.335000000000004 2.5000000000000004 48.000000000000007 2.5000000000000004 11.180000000000001 1.0000000180025095e-35 0.11574915824915825 16.365000000000006 10.440000000000003 0.099999000019999618 2.5000000000000004 1.5000000000000002 6.4250000000000007 2.5000000000000004 1.0000000180025095e-35 6596.5000000000009 1.0000000180025095e-35 4812.5000000000009 2.5000000000000004 0.18000002769231624 35125.500000000007 1.0000000180025095e-35 15.505000000000001 14.595000000000001 17.205000000000002 11.180000000000001 1.0000000180025095e-35 6.5000000000000009 8822.5000000000018 17.495000000000001 20.025000000000002 0.24391731293822269 1.0000000180025095e-35 41002.000000000007 18.705000000000002 18.795000000000005 0.27273719080395936 19.175000000000004 12.295000000000002 5.5000000000000009 10.180000000000001 20.125000000000004 15.225000000000003 7.5000000000000009 4.5000000000000009 25.015000000000004 18.615000000000006 4.5000000000000009 31004.500000000004 0.078962320574162692 93.950000000000017 0.20316125000000004 4.5000000000000009 0.056457863695958795 9.7550000000000008 22.075000000000003 7493.5000000000009 14.965000000000002 37104.000000000007 13.655000000000003 16.185000000000006 2.5000000000000004 15.415000000000001 13.735000000000001 0.57500000000000007 17.585000000000004 21.435000000000006 144.12000000000003 46.500000000000007 95826.500000000015 30267.500000000004 1.0000000180025095e-35 1.0000000180025095e-35 37104.000000000007 6.5000000000000009 14.685 0.31819416996047439 5281.5000000000009 79003.000000000015 24.285000000000004 57.080000000000005 25.275000000000002 2.5000000000000004 4500.5000000000009 63000.750000000007 20.505000000000006 0.250003125078127 14795.500000000002 0.57500000000000007 96.950000000000017 0.36364958773861245 0.16625051953449713 1.0000000180025095e-35 2.5000000000000004 2.5000000000000004 0.062442507310699551 0.14285816327988363 42018.500000000007
decision_type=2 2 2 2 2 2 2 2 2 2 2 2 2 2 2 2 2 2 2 2 2 2 2 2 2 2 2 2 2 2 2 2 2 2 2 2 2 2 2 2 2 2 2 2 2 2 2 2 2 2 2 2 2 2 2 2 2 2 2 2 2 2 2 2 2 2 2 2 2 2 2 2 2 2 2 2 2 2 2 2 2 2 2 2 2 2 2 2 2 2 2 2 2 2 2 2 2 2 2 2 2 2 2 2 2 2 2 2 2 2 2 2 2 2 2 2 2 2 2 2 2 2 2 2 2 2
left_child=1 9 4 8 5 11 7 14 19 27 29 24 23 20 22 33 32 84 46 25 42 28 49 39 54 81 106 -1 47 61 35 64 55 -7 57 80 91 66 73 104 83 -41 -9 96 -22 79 62 102 107 -3 -21 98 95 74 -2 124 -52 -35 119 -43 -39 -6 99 -40 -19 -42 -17 -45 -24 -23 92 100 -48 101 -18 -25 -49 -38 -20 -46 110 -4 -51 115 -10 -57 -53 -56 -83 -47 -80 114 -36 -91 -33 -44 -37 -77 -14 -8 -30 -31 -13 -32 -5 -89 -11 -12 -86 -88 -28 -67 -27 -94 -15 -29 -62 -82 -119 -34 -63 -102 -54 -26 -16 -126
right_child=2 6 3 12 10 15 18 13 17 26 48 21 51 36 16 37 53 31 78 50 44 69 68 75 123 112 30 40 71 38 103 94 58 34 70 43 77 60 63 41 65 59 52 67 45 89 72 76 -50 82 56 86 122 -55 87 85 -58 -59 -60 -61 116 120 -64 -65 -66 111 -68 -69 -70 -71 -72 -73 -74 -75 -76 97 -78 -79 90 -81 117 88 -84 -85 108 -87 109 105 -90 93 -92 -93 113 -95 -96 -97 -98 -99 -100 -101 121 -103 -104 -105 -106 -107 -108 -109 -110 -111 -112 -113 -114 -115 -116 -117 -118 118 -120 -121 -122 -123 -124 -125 125 -127
leaf_value=0.0096965578694246969 0.033866040097010407 0.026157251991564504 0.019558375248113033 0.040125086736974479 0.047799370004674761 0.04406833059534692 0.045737709091615016 0.035029702703632905 0.038893283955510304 0.02617171294055215 0.034329636965883023 0.022896844208143866 0.043082776352928863 0.0043727404478826155 0.011085812737679482 0.025809231572745773 0.0050328575802980648 0.042285384058291096 0.029162498581970678 0.035464525972159676 0.042683362374284453 0.019828800513040642 0.0032567542014209443 0.053820942969525554 0.021896638949575019 0.038254707838961489 -0.0032369955751162271 -0.0081315548259080581 0.044528878897989906 0.044170185266841591 0.010408416528286507 0.049084066378134603 0.018759451476587998 0.020361231923252891 0.026637444425366714 0.0099765857510115269 0.013127276163501274 0.052747014916846448 0.046969161955380992 0.049399990867358919 -0.0050456249143614263 0.050767631023732628 0.0056131425215468957 0.00071593925804015312 0.014829446921459336 0.027554946451538428 0.035735347477318755 0.03465632062165807 0.027874052497453165 0.0080779787949278332 0.046240364410815527 0.048891409051605612 0.020463935461048206 0.016589138785892084 0.019968364518300492 0.015564075298123712 0.037669611076484193 0.030531349741863612 0.030835272819780168 0.056931995295522377 0.037347407551005789 0.0311308289394173 0.035238423109769663 0.054046083628802873 0.048502041883380448 0.009646654796284548 0.037853151987980956 0.0098835490875504358 0.0088389096516956929 0.027436863435622235 0.039314919377693415 0.040653629790734759 0.046882607574631273 0.048575629226493694 0.013332653643347112 0.061193877346057704 0.025090962207542443 0.022241293712608298 0.01318977491941343 0.031833873317894543 0.010042172086015346 0.025720560688685012 0.015539410566188259 -0.0025656551048965377 0.0024066682446864506 0.027437420250698504 0.039635321882329724 0.027327407486946315 0.033188544224891599 0.029979466009436968 0.023426637419266046 0.014786139409665109 0.030976727379561517 0.036888473889461093 0.054507461435338973 0.018439414479015467 0.020780457055851489 0.05606994894155222 0.034342662901230295 0.02557470199773261 0.029404689885740215 0.03684197112985526 0.029786938294804388 0.025197468320139728 0.048669066625529264 0.020815637107751882 0.012684776031879176 0.040305476128430155 0.029786379912524006 0.047921143731675102 0.0034528636011542184 -0.001033789856383686 0.02976953713363514 0.037375931363209096 0.022430620539403319 -0.014067805556472088 0.043516892126884699 -0.00034121744199915228 0.032267168904292945 0.026707847152895408 0.039503329594554132 0.035751173659229959 0.027841839223494872 0.013955366399939209 0.024781868446790305 0.015077923629148962
leaf_weight=842.29310737550259 874.76295775175095 725.22944119572639 696.58590115606785 1308.9946259558201 893.0921666175127 1162.7855679094791 131.07335898280144 657.11673249304295 957.38416934013367 511.63532757759094 5080.5218540579081 2507.453891351819 2323.7264967858791 1075.2179832309484 1202.6939719617367 670.3934732824564 1938.5968927592039 4046.4003188610077 715.3489071726799 1927.2419700324535 768.74367180466652 2593.514611274004 3658.9718537032604 4272.6961214840412 813.16845797002316 5244.9550691395998 3432.2086219340563 2733.4383023232222 420.3504970818758 2672.5226920694113 411.61920715868473 3556.6424604952335 1277.6640538424253 1460.2668599635363 1238.0906836241484 2434.2286413758993 871.0104945152998 749.67816515266895 2448.5194778889418 7472.0407568365335 4170.3823622018099 2870.324988886714 358.64895278215408 2589.9445968568325 705.92471705377102 2560.1583926379681 1531.9404988884926 3194.9411766678095 2017.3094502836466 1328.2789914906025 3791.5943342745304 5342.7506024688482 1326.9945683479309 2335.7884877920151 2950.9675734490156 570.58060671389103 1566.1388985216618 1643.4507600218058 2302.7347986549139 6010.875297293067 1401.0996990948915 760.57245814800262 1935.4727028757334 3113.2656728029251 3006.4607338905334 557.30308552086353 1441.0143849402666 1116.9594938158989 4899.4756489694118 1980.6158042699099 1760.7179125696421 2234.1337321847677 756.55690681934357 1873.8421299010515 1587.5027932077646 3731.362160935998 821.3202638477087 3732.7985025495291 958.9801424741745 281.17059852182865 941.30414505302906 1992.4990005195141 4765.9685750752687 1002.4043819010258 67.866548448801041 1372.9747784733772 1536.8614113479853 3768.9563399702311 1988.3596775829792 2227.9887263178825 1105.777395889163 2318.9433550983667 2300.3141957521439 2185.3595011979342 3635.2476656883955 2854.2120840549469 547.00154526531696 4202.0306895673275 946.27822388708591 1967.5171272307634 1745.5164134949446 1403.9909939616919 1742.1800618320704 484.10410176217556 1316.8599256873131 1592.5123901665211 518.85794757306576 1773.893362313509 736.59063673019409 1213.8657750487328 1475.2590809315443 1403.1178170442581 719.31676495075226 2090.9682515412569 156.42348112165928 2286.2067521363497 6558.9245509654284 1108.3267747014761 47.054997310042381 1391.8144116699696 2837.8307404965162 2534.6697555184364 1784.0234301835299 3297.2496373653412 788.42435695230961 1644.4800889045
leaf_count=3993 2952 2761 2804 3812 2388 3341 393 2183 2951 1985 16915 9831 6550 5335 5544 2485 9585 11436 2718 6156 2273 10548 18301 9611 3265 15791 18465 15748 1230 7614 1970 8813 5390 5787 4465 11558 3864 1757 6600 18629 23265 6949 1710 13411 2987 9361 5209 10675 7368 6346 10243 13594 5407 10106 11923 2509 4852 5764 8362 12686 4307 2602 6663 7381 7632 2728 4607 5359 22858 7329 5367 6879 2219 4947 7243 7173 3054 14934 4278 986 4540 7283 20756 5514 321 5328 4509 13832 6660 7932 4431 10267 7914 7070 8110 12014 2335 9068 2994 7619 6188 4396 6328 2010 3299 6279 2317 5417 2613 3118 7532 7588 2419 6648 654 13801 18587 5792 187 5284 8544 8310 6735 14158 3169 7221
internal_value=0 0.0141868 0.0403322 0.0468767 0.0341085 0.0309353 0.0200893 0.0184485 0.0413945 0.000827984 0.0411946 0.0268044 0.0512486 0.0235365 0.014629 0.037013 0.018648 0.0467944 0.030121 0.0365727 0.0270344 0.0302377 0.0103392 0.0534747 0.0216984 0.0331657 0.00573732 -0.00507226 0.032378 0.0451506 0.00477301 0.0484155 0.022404 0.0328392 0.0315944 0.00388092 0.0167969 0.0415085 0.0472619 0.0513033 -0.0060961 0.0524094 0.0221321 0.00725993 0.0309543 0.0298208 0.0339663 0.0291141 0.0340578 0.0152164 0.0415487 0.0451388 0.0207911 0.0118865 0.024459 0.0186827 0.0437361 0.0257479 0.0265787 0.0549405 0.0433204 0.0397378 0.0308692 0.0509318 0.0449363 -0.0027918 0.0340314 0.00347904 0.00645268 0.0231241 0.0340491 0.0362677 0.0394233 0.0438305 0.00877039 0.0568503 0.0327014 0.0205177 0.0213744 0.0196779 0.000654021 0.0279794 0.0139136 -0.00945963 0.0336848 0.0239537 0.0469899 0.0234684 0.0294519 0.031256 0.0186739 0.0119714 0.0324011 0.0334018 0.0518264 0.0170085 0.0119602 0.0584809 0.0405553 0.0268371 0.0341819 0.0416477 0.0257226 0.0184055 0.0444123 0.025394 0.0193848 0.035877 0.0274796 0.0432941 -0.00122549 0.00200173 0.0372322 0.034025 0.00666942 -0.0108359 0.0424317 0.00505397 0.000987764 0.0229052 0.0377352 0.0331642 0.0246962 0.0155274 0.0158638 0.0182244
internal_weight=0 93372.2 156907 76482 80425.4 55550 64758.6 55655.9 33933.3 28613.7 24875.4 33072.3 42548.7 23864.7 31791.2 22477.7 16413.3 16006.6 9102.67 17926.7 15710.3 19774.7 15377.9 31185.2 13297.6 10641.7 15618.5 12995.1 15200.6 16003.6 14588 14244.8 10551.4 11656.6 10493.8 13692.3 8154.39 10821.1 11512.1 18979.1 12152.9 16353.2 6981 6688.13 8729.35 7960.6 6322.56 8265.9 8871.72 6819.48 7284.98 11363.5 6323.88 5861.89 9187.2 5579.15 5357.73 3103.72 4972.21 8881.2 8709.7 4491.5 4034.06 5561.79 7052.86 6130.8 2111.41 3706.9 8558.45 4574.13 7390.09 6934.67 2288.5 5950.36 3526.1 12206.1 4016.26 4603.81 2780.11 987.095 7004.15 4677.44 6094.25 6022.05 1761.84 1943.56 8093.48 8312.44 3980.86 6973.51 2064.76 3550.58 5629.37 4413.35 7191.89 3212.86 2981.23 7933.39 3270 2098.59 4700.54 4076.51 4249.63 895.723 2625.85 5361.47 1030.49 6854.42 804.457 2750.73 4907.47 1960.42 5964.27 4391.28 1231.64 5019.65 7960.02 2096.69 1155.38 2669.48 3598.4 4280.19 3111.02 4110.42 3635.6 2432.9
internal_count=886161 418103 468058 200076 267982 193810 268005 234475 98084 150098 74172 122781 101992 93712 140763 71029 69741 41876 33530 56208 58658 70372 71022 71227 52409 34957 77461 72637 52495 44472 73159 35991 42807 39286 35945 69179 35054 31743 30938 45375 68644 38264 28049 32663 30609 28336 22103 29888 29700 29863 21251 30765 25866 26934 34986 23771 15095 11551 19036 19635 24651 13534 14675 13981 19068 33581 7092 18770 41159 17877 24394 22607 7428 16957 16828 25852 13729 18798 11427 3973 36516 16747 27102 35063 5885 7837 21221 32034 13943 24363 8709 16256 19027 15002 16923 13724 13893 16241 9544 8012 15728 12010 16159 3980 7111 20111 4302 22332 2934 7627 25997 10316 18210 14562 5989 29549 22894 10519 5979 10674 11146 14498 12142 17423 15934 10390
is_linear=0
shrinkage=0.02


Tree=6
num_leaves=127
num_cat=0
split_feature=1 1 1 33 33 27 27 27 33 31 24 24 24 21 21 39 24 29 21 11 6 23 24 2 6 5 34 5 23 1 11 29 24 11 2 29 2 2 39 31 39 1 3 6 34 2 5 23 2 11 2 27 24 23 34 31 39 6 21 34 21 2 11 6 37 6 31 21 21 2 2 2 39 5 6 2 21 23 34 11 6 6 6 24 2 6 6 24 2 11 27 34 34 24 27 3 29 5 39 34 5 24 2 6 27 34 31 2 31 11 31 34 21 2 6 5 34 11 1 31 5 29 23 3 2 1
split_gain=99890.5 16437.7 14484 5006.49 3174.3 2658.1 2302.21 2031.11 2141.08 1956.83 1398.72 1368.31 1259.54 1192.09 1139.26 880.242 807.205 748.12 734.2 711.128 671.7 661.408 605.742 508.384 485.564 430.588 428.816 417.984 409.36 402.506 391.953 390.921 383.025 375.768 373.783 340.217 302.387 295.849 291.315 284.964 279.923 264.28 255.576 249.741 241.256 240.143 212.158 205.291 204.629 202.067 201.68 199.167 199.049 198.053 195.801 194.811 189.56 188.595 177.814 175.948 174.76 174.753 172.82 171.993 171.552 170.439 167.996 166.222 164.704 164.429 163.509 154.219 153.514 150.793 148.603 148.373 148.219 166.709 147.301 145.586 158.787 144.535 144.11 142.902 140.217 139.68 139.364 136.81 135.476 134.03 133.584 132.174 131.343 129.769 128.645 125.379 120.001 118.712 118.089 116.724 116.585 114.712 113.773 113.484 110.937 110.382 108.486 108.352 105.324 104.971 103.395 102.247 101.461 97.7722 96.526 96.4557 95.9177 95.7639 94.4279 93.5087 93.4067 92.8023 92.2958 91.3486 91.3187 90.057
threshold=2.5000000000000004 1.5000000000000002 3.5000000000000004 48.000000000000007 48.000000000000007 1.0000000180025095e-35 1.5000000000000002 5.5000000000000009 48.000000000000007 7.2250000000000005 12256.500000000002 14591.500000000002 14041.500000000002 3.5000000000000004 4.5000000000000009 2.5000000000000004 10375.500000000002 45001.000000000007 4.5000000000000009 5.5000000000000009 0.033154018181818186 1.0000000180025095e-35 11213.500000000002 21.535000000000004 0.046484739978331538 0.16625051953449713 1.0000000180025095e-35 0.1972695927686143 176066.50000000003 4.5000000000000009 5.5000000000000009 42500.060000000005 9113.5000000000018 3.5000000000000004 21.855000000000004 37001.500000000007 17.015000000000004 19.735000000000003 2.5000000000000004 10.415000000000001 2.5000000000000004 4.5000000000000009 53.050000000000004 0.07715950000000002 1.0000000180025095e-35 23.265000000000004 0.045456198467326556 169424.50000000003 24.525000000000002 6.5000000000000009 12.965000000000002 2.5000000000000004 37532.500000000007 211143.50000000003 1.0000000180025095e-35 10.745000000000003 2.5000000000000004 0.092359073684210549 4.5000000000000009 1.0000000180025095e-35 5.5000000000000009 20.915000000000003 4.5000000000000009 0.036992535714285721 1.0000000180025095e-35 0.059453137254901971 6.4250000000000007 5.5000000000000009 1.5000000000000002 12.875000000000002 18.705000000000002 17.865000000000006 2.5000000000000004 0.080000853351538184 0.015619763147330389 21.435000000000006 7.5000000000000009 40300.500000000007 1.0000000180025095e-35 2.5000000000000004 0.081202680048826817 0.07893767665023009 0.07365158333333334 3715.5000000000005 15.235000000000001 0.049711556224899603 0.1152608184818482 6394.5000000000009 14.025 5.5000000000000009 46.500000000000007 42.000000000000007 1.0000000180025095e-35 7016.5000000000009 49.500000000000007 25.250000000000004 75000.060000000012 0.18713868003341691 2.5000000000000004 1.0000000180025095e-35 0.16162007977368725 45462.500000000007 20.125000000000004 0.068442500000000003 26.500000000000004 1.0000000180025095e-35 11.450000000000001 17.015000000000004 15.600000000000001 8.5000000000000018 7.8850000000000007 9.0000000000000018 5.5000000000000009 12.875000000000002 0.045646234817813769 0.19999384653252111 1.0000000180025095e-35 7.5000000000000009 4.5000000000000009 10.415000000000001 0.19213235355722189 50000.780000000006 333137.50000000006 40.550000000000004 13.925000000000002 4.5000000000000009
decision_type=2 2 2 2 2 2 2 2 2 2 2 2 2 2 2 2 2 2 2 2 2 2 2 2 2 2 2 2 2 2 2 2 2 2 2 2 2 2 2 2 2 2 2 2 2 2 2 2 2 2 2 2 2 2 2 2 2 2 2 2 2 2 2 2 2 2 2 2 2 2 2 2 2 2 2 2 2 2 2 2 2 2 2 2 2 2 2 2 2 2 2 2 2 2 2 2 2 2 2 2 2 2 2 2 2 2 2 2 2 2 2 2 2 2 2 2 2 2 2 2 2 2 2 2 2 2
left_child=1 9 4 6 5 13 18 8 14 26 21 37 19 31 17 24 43 44 27 25 93 81 36 35 70 42 104 74 41 52 66 78 45 85 57 -11 65 79 95 100 49 89 92 88 -3 86 102 68 103 82 111 67 -12 117 -48 116 109 -23 -42 -26 87 114 -53 -34 71 -15 -28 110 -19 97 99 -61 112 -33 -4 -24 77 -38 -2 80 -6 -5 124 -81 -49 -17 -20 90 -16 -22 -25 -71 -9 -8 -55 -21 -75 -41 -59 -7 113 118 -35 -31 -1 -45 -46 -56 -58 -39 -37 -13 -36 -14 123 -30 -27 -32 -76 -94 -108 -18 -69 -40 -10 -65
right_child=2 7 3 10 11 15 20 12 40 23 29 50 39 22 16 33 121 47 32 38 28 34 75 60 59 55 30 -29 115 48 53 73 63 46 72 51 76 56 61 69 58 -43 -44 105 106 -47 54 84 -50 -51 -52 62 -54 94 107 -57 108 98 -60 64 -62 -63 -64 125 -66 -67 -68 122 -70 91 -72 -73 -74 96 101 -77 -78 -79 -80 83 -82 -83 -84 -85 -86 -87 -88 -89 -90 -91 -92 -93 119 -95 -96 -97 -98 -99 -100 -101 -102 -103 -104 -105 -106 -107 120 -109 -110 -111 -112 -113 -114 -115 -116 -117 -118 -119 -120 -121 -122 -123 -124 -125 -126 -127
leaf_value=0.0035910474559511726 0.034965140957438384 0.026773600561800573 0.0112470385353085 0.034467857583633799 0.027982432919099357 0.040841198212173267 0.038423830301191904 0.029539621654851661 0.012950313081920127 0.01342821485573694 0.042040235741004572 0.039405404210285669 0.001938811237834594 0.022648860487985253 0.014194108905576975 0.027451140803455495 0.018780297956113533 0.0061455715869170105 0.035658053233967563 0.018686324443967055 0.043660301924627873 0.047544297582708256 0.02026951522859784 0.010023110099583572 0.041662399140697012 0.033484701354838824 -0.011799708424983789 0.034708749426932285 0.036498927523574455 0.040198067825850316 -0.00074229865251894595 0.011002002315937613 0.023119462551704096 0.014540892389343559 0.049303461348066423 -0.0052519037958417367 0.037019080881736922 0.039867413776426795 0.015260779220418805 0.0094010378337619754 0.030568244372940267 0.052321857300554442 0.024358905599632833 0.037775683831764065 0.012397013033384674 0.044825993244773717 0.052644715189665882 0.00075438696712856529 0.05136627333607624 0.031621699793102045 0.034266832799697784 0.001519224499516655 0.03265700461362863 -0.0075771284353312301 0.03773772969881143 0.030060945503409639 0.050422634989122112 0.04901470283987841 0.0464647674753298 0.024887068795459856 0.017284596107136938 0.039561404183562972 0.010043427185422752 0.032587539447913483 0.035707316024788181 0.030411228595374911 -0.0060047179941204688 0.0092303105373733561 0.011880862217475967 0.027525344613142579 0.029241838430199275 0.032796538244559054 0.056374322383120158 0.021062742774788753 0.026309614835845718 0.027338004371765 0.037568700338880705 0.029549534353674967 0.024041307683523347 0.044299541281086603 0.041819869155248733 0.045274456782914647 0.02757513801237705 0.038253679416158849 0.0077152624781253488 0.036095855347979024 0.043058521965899488 0.0044818003250072106 0.021774296973512988 0.048904002872840698 0.026119015383327265 0.019099373156339916 0.0086753088551491594 0.027922058254135955 0.0054927986366951473 0.028335082930971863 0.014985954100484455 0.021500824493942434 0.054174586376367219 0.019133107618623139 0.015701808797227924 0.0096729670650619291 0.038737093531951781 0.046546218059470283 0.019377522226852906 0.025334654151123886 0.012115108141055691 0.042857903304777886 0.040657540639326015 0.047141706725652849 0.00036257434328327594 0.02593008103404813 0.054463975002324007 0.011940829631312811 0.033536085396949571 0.043053837334070741 0.020824749531130428 0.0083151244041805815 0.033136921391757779 0.016245936111016754 0.020472527552814781 0.010405992076659765 -0.0027355608724571692 0.030674187581049284 0.022250264078180426 0.040658514627106603
leaf_weight=583.50670082867146 572.17021387815475 780.94474503397942 237.94676232337952 911.89282490313053 793.75964440405369 105.58467637002468 1007.4549793750048 214.07670879364014 760.8712515681982 1123.5630587935448 6088.0625607520342 253.60015562176704 630.05156634747982 1923.4845186918974 1430.5333512276411 1117.1155061274767 619.53526893258095 3086.3585554659367 3372.0577871352434 652.92017216980457 4631.9827446788549 6799.4906630218029 2995.3834649026394 1067.9305604547262 961.62188710272312 270.50511433184147 4036.627737402916 5884.0835771262646 1553.8004037886858 1542.543393060565 1003.3038592338562 1095.3948429375887 608.72038002312183 178.35376310348511 2766.8765707165003 1989.5732171535492 1711.3687957376242 2443.1767821013927 264.73667404055595 892.62377960979939 984.18163374066353 3758.0082176178694 1608.9415986835957 315.51299786567688 3106.7126248478889 3443.295300796628 621.70322550833225 2044.2093021422625 2927.7604378312826 1170.8747893869877 6329.4747551977634 2003.260494530201 1067.098960340023 1809.6950055360794 2686.8425387442112 2722.741087436676 2805.3802717477083 2946.4243583232164 396.13597503304482 1588.367558196187 1249.8027757257223 1597.4996735304594 1812.8932592719793 1948.9329980611801 3747.49937979877 2765.5143675208092 3972.9815287292004 1019.231047436595 5716.9721028804779 1134.0092211812735 1628.6800394356251 2623.2722306400537 8062.0008847415447 4001.9870705157518 3127.4867718815804 1976.3323332965374 2585.0597416907549 4007.0375805199146 3674.6408961266279 2885.992193326354 573.56040903925896 1096.1482810527086 1039.7452334463596 3456.7076025605202 2670.7118121087551 2290.0621033012867 1468.9320349246264 1631.5383325815201 2784.5476873666048 3409.9619599431753 255.91888135671616 2184.8748298734426 1078.7888506501913 891.04670883715153 361.1298846155405 3140.2747240513563 1931.7480484545231 510.56825205683708 4574.6651976555586 1654.668868497014 1614.723355203867 140.25504872202873 138.50474810600281 4307.5959908515215 256.47888191044331 3094.1188375502825 766.27412244677544 4383.3856692761183 530.71892233192921 1189.5235741883516 3850.5698764920235 2090.9490249305964 3483.045426428318 1032.4118977934122 1554.1475830078125 2169.8958225697279 2141.4625623971224 872.69335685670376 1101.0838975012302 1659.4858083575964 1787.6036923378706 3672.2496799081564 344.78535839915276 370.50356927514076 955.13668654859066 779.79969772696495
leaf_count=2877 1837 2881 1023 2814 2711 318 3008 734 3324 5130 16651 780 3191 7421 6283 3927 2613 14668 10446 2605 11986 16479 11879 5022 2709 884 24165 18068 4628 4302 5462 4834 2289 727 6379 10926 5367 6984 1092 4071 3467 8103 6143 1012 13926 9022 1379 10343 6500 4171 20418 10300 3391 10384 7994 9399 6681 6903 1137 5675 5520 4878 8587 6293 11790 9484 22367 4892 25725 4260 5631 8506 15819 15583 11250 7130 8018 13784 13690 7752 1599 2768 3841 10246 12623 6863 3935 8159 11184 8098 1015 8904 4944 3154 1864 11287 8105 2039 9455 6518 7024 597 430 10599 1116 11821 3398 11992 1449 3073 20003 7524 7263 4676 5205 5730 8584 4310 3550 6876 7193 16923 1829 1290 3779 2169
internal_value=0 0.0127997 0.0389092 0.0445319 0.0325651 0.0298564 0.0392971 0.0185938 0.01562 0.000425207 0.0489754 0.0387084 0.0229685 0.02582 0.0136616 0.0348307 0.0185552 0.0107397 0.0350122 0.0260068 0.0447351 0.0514756 0.0290198 0.00502005 0.0311193 0.0224177 -0.00539961 0.0311746 0.0461091 0.0441669 -0.00636234 0.0207219 0.038476 0.0388322 0.0522542 0.00294441 0.0312923 0.0424307 0.0305971 0.0164062 0.0273825 0.0479353 0.0179437 0.0224608 0.0163493 0.0407823 0.0412008 0.00806652 0.0470398 0.0246559 0.0324087 0.00187526 0.0406416 -0.00128847 0.0418621 0.0263912 0.0454212 0.0499658 0.0351349 0.0335685 0.0110134 0.0345241 0.00556939 0.0327495 0.0325899 0.027228 -0.0089256 -8.1359e-05 0.00987045 0.0195517 0.0246707 0.0298147 0.0545434 0.0178259 0.0266594 0.0230802 0.0335869 0.0317859 0.0255143 0.0397268 0.033791 0.0403699 0.0216945 0.0410056 0.0046978 0.033263 0.0379049 0.00836025 0.0192026 0.0458846 0.0131379 0.0219797 0.0144463 0.0334977 -0.00540179 0.0266753 0.019085 0.0138063 0.0521541 0.0204386 0.0118728 0.0274981 0.0251327 0.0448734 0.00841536 0.0264876 0.0149103 0.040913 0.048871 0.0422512 -0.00154984 0.0273901 0.0521805 0.00815175 0.030846 0.0403202 0.0222467 0.00347027 0.0280886 0.0132645 0.0179663 0.0116157 0.00620423 0.0242572 0.0181289 0.0348961
internal_weight=0 91704.1 162427 86108.4 76318.6 52965.8 39534.7 62458.6 37183.2 29245.5 46573.6 23352.8 25275.3 29240.1 31876.3 23725.7 11916.5 19959.8 22112.6 17276.1 17422.2 30640.5 17964.2 16349.1 12309.7 9696 12896.4 10490.9 15523.6 15933.1 12056.4 11275.9 11621.7 11416 28632.5 12143.9 12992.5 14678.8 7580.08 7999.26 5306.95 11800 4561.29 7624.71 6441.54 8284.29 8008.79 13518.3 8777.9 3926.63 8674.02 11020.3 7155.16 4046.82 7691.93 5134.71 6968.8 14320.6 1380.32 8920.76 4205.19 3786.89 3816.15 3337.45 7959.14 4689 8009.61 7204.16 8803.33 4722.08 3388.93 4211.64 14311.9 7029.13 4606.77 4971.72 8303.47 5718.41 4246.81 7710.02 1367.32 2008.04 2755.75 6342.7 4714.92 3407.18 4840.99 2955.39 4215.08 8041.94 1323.85 3318.88 2952.35 1898.5 2170.82 3793.19 5933.74 1403.19 7521.09 1760.25 3277.19 4368.83 316.859 5850.14 839.986 3409.63 5660.59 7070.23 3336.1 3632.7 5840.14 2344.55 6249.92 1662.46 2189.39 3723.7 2411.97 1876 4228.57 2738.27 2553.88 4291.78 1364.02 635.24 1716.01 2728.73
internal_count=885806 412326 473480 222672 250808 181591 113349 258398 160312 153928 109323 69217 98086 107132 140593 74459 49836 90757 68642 63921 44707 67880 63083 81383 41147 37564 72545 34488 38545 41443 68552 44049 34154 33312 62298 61667 44074 40495 26357 34165 19719 28187 18697 30300 27398 23403 22522 63359 21401 15115 28722 56537 20042 22020 21365 18867 18187 32837 4604 28680 19716 12465 18887 10751 25971 16905 46532 37650 40393 19274 12467 14181 29461 28522 16420 19009 27169 19151 15527 22308 4310 5582 10944 17998 22966 10790 14381 14196 17467 20084 6037 13164 12554 6162 12248 13892 23688 6110 16358 6836 14891 15397 1157 14901 3993 12833 24517 19986 8130 10057 30929 8304 13642 7867 7587 10358 9468 9772 14800 11820 10591 19536 6721 2382 7103 8462
is_linear=0
shrinkage=0.02


Tree=7
num_leaves=127
num_cat=0
split_feature=0 0 0 33 33 27 0 0 27 24 21 18 18 24 27 33 33 27 24 23 21 33 6 24 21 6 24 6 29 24 21 29 6 23 21 6 39 27 21 24 27 6 29 18 21 0 0 39 3 6 29 23 21 33 6 39 31 0 31 23 6 32 0 24 18 0 5 3 5 31 24 27 5 5 5 31 6 5 18 6 29 3 5 37 29 21 24 5 21 31 29 3 6 37 3 0 6 3 28 23 5 31 33 0 32 21 0 27 3 18 3 21 23 21 3 21 21 3 6 15 21 21 39 6 17 8
split_gain=92448.1 15268.2 13082.6 3608.74 3570.16 2866.54 2257.41 1821.48 1672.68 1577.89 1274.41 1081.04 1067.73 1038.23 878.904 977.833 794.22 752.987 694.845 611.948 587.496 555.395 537.843 531.876 507.607 436.297 435.673 430.439 408.088 401.95 398.692 385.69 383.027 360.442 352.013 330.688 316.441 267.275 260.148 249.269 248.475 246.908 244.738 242.095 219.618 212.528 212.242 207.148 202.912 195.721 192.77 192.052 186.722 180.915 168.858 165.701 162.165 160.594 173.024 158.521 157.204 155.437 152.969 152.04 150.704 140.421 138.091 133.102 132.963 131.745 131.637 131.631 128.33 127.762 127.309 127.194 126.705 124.028 123.944 119.418 119.085 118.931 117.773 117.7 115.759 113.133 110.286 109.074 106.24 105.058 104.426 104.062 100.776 100.416 115.458 99.4728 98.726 97.3323 96.6659 116.856 96.2053 96.0984 96.0518 95.8232 93.6657 93.2144 92.9488 92.6993 92.536 92.4681 91.278 91.1027 91.0572 93.6393 86.0069 85.5916 85.3187 129.679 85.0191 84.3023 83.1896 83.0784 80.966 80.9126 80.4964 79.6247
